[
  {
    "m_NNJson": {
      "dLearningRate": 0.1,
      "iHiddenNodes": 6,
      "iInputNodes": 5,
      "iOutputNodes": 1,
      "mBiasHidden": {
        "iCols": 1,
        "iRows": 6,
        "vData": [
          0.45050322133252685,
          0.12861640090860302,
          -0.23733494571155284,
          -0.7294559422847277,
          0.6315856788335186,
          0.3922792931343042
        ]
      },
      "mBiasOutput": {
        "iCols": 1,
        "iRows": 1,
        "vData": [
          -1.6430930445935503
        ]
      },
      "mHiddenWeights": {
        "iCols": 6,
        "iRows": 1,
        "vData": [
          -1.649737471545724,
          0.18099852092387775,
          -0.06799407405745428,
          -1.0220350692799949,
          -1.1259944847044983,
          -1.2900857102069978
        ]
      },
      "mInputWeights": {
        "iCols": 5,
        "iRows": 6,
        "vData": [
          1.1279350847153256,
          -0.042413399733201074,
          -2.370821329686797,
          8.359280643034236,
          10.35592693407239,
          3.547401379444441,
          -0.7072489784197376,
          -0.5557842798226936,
          0.563871039213641,
          -3.387790540321439,
          -0.2581228668558974,
          -0.4786295196272826,
          7.386618627834169,
          -18.097369810797108,
          -7.776083133392608,
          0.1280958820606113,
          0.9270521893398631,
          -1.2022303291816883,
          6.8204125922059,
          0.9599826669434467,
          0.029173034870737524,
          -0.7799092254540634,
          13.935108805744315,
          -21.768296636303358,
          -68.33612663552626,
          1.0976726789970677,
          -0.009994294480983296,
          1.1659033274729593,
          -0.6682070161500772,
          -2.7925058800873352
        ]
      }
    },
    "m_iHiddenCount": 6,
    "m_iInputCount": 5,
    "m_iOutputCount": 1,
    "m_iScore": -100
  },
  {
    "m_NNJson": {
      "dLearningRate": 0.1,
      "iHiddenNodes": 6,
      "iInputNodes": 5,
      "iOutputNodes": 1,
      "mBiasHidden": {
        "iCols": 1,
        "iRows": 6,
        "vData": [
          0.6432996612445447,
          0.19925534836878578,
          -0.2585833307901242,
          0.17929624317148352,
          -0.4105655079805902,
          0.43662831507309185
        ]
      },
      "mBiasOutput": {
        "iCols": 1,
        "iRows": 1,
        "vData": [
          -0.08462782677694025
        ]
      },
      "mHiddenWeights": {
        "iCols": 6,
        "iRows": 1,
        "vData": [
          -0.6817529831843012,
          -0.272194586016419,
          0.7550584429456466,
          -0.43913083285012355,
          0.5153660695211646,
          -0.5668202764976958
        ]
      },
      "mInputWeights": {
        "iCols": 5,
        "iRows": 6,
        "vData": [
          0.5861079744865261,
          -0.3519089327677236,
          -0.6438489944151128,
          0.07211523789178131,
          -0.163243507187109,
          -0.49259926145207067,
          0.49516281624805436,
          -0.14774010437330243,
          0.8618732261116366,
          -0.5356303598132267,
          -0.8593707083346049,
          -0.4734336375011444,
          -0.47398297067171236,
          0.8518631550035096,
          -0.48600726340525524,
          0.771721549119541,
          0.7768486587115084,
          -0.10550248725852229,
          0.7390057069612721,
          -0.17709891048921167,
          0.08932767723624369,
          0.6252937406537065,
          0.3429364909817805,
          0.2202520828882717,
          -0.5230567339091159,
          0.10220648823511458,
          0.8555864131595814,
          0.262062440870388,
          -0.6183355204931791,
          -0.011017181920835006
        ]
      }
    },
    "m_iHiddenCount": 6,
    "m_iInputCount": 5,
    "m_iOutputCount": 1,
    "m_iScore": -100
  },
  {
    "m_NNJson": {
      "dLearningRate": 0.1,
      "iHiddenNodes": 6,
      "iInputNodes": 5,
      "iOutputNodes": 1,
      "mBiasHidden": {
        "iCols": 1,
        "iRows": 6,
        "vData": [
          0.2524796288949247,
          0.7814874721518601,
          -0.8974578081606495,
          -0.23868526261177403,
          -0.12131107516708883,
          -0.6341441084017456
        ]
      },
      "mBiasOutput": {
        "iCols": 1,
        "iRows": 1,
        "vData": [
          0.026398510696737487
        ]
      },
      "mHiddenWeights": {
        "iCols": 6,
        "iRows": 1,
        "vData": [
          0.11142307809686569,
          0.5707266457106235,
          0.185460982085635,
          -0.48521378215887934,
          0.5518051698355053,
          0.727774895474105
        ]
      },
      "mInputWeights": {
        "iCols": 5,
        "iRows": 6,
        "vData": [
          0.6592913602099673,
          0.163243507187109,
          -0.38486892300180064,
          0.8554643391216772,
          0.8844569231238746,
          0.93359172338023,
          -0.7791070284127324,
          -0.4736167485580004,
          0.6921292764061404,
          -0.8062074648274178,
          -0.04361095004119997,
          -0.9282815027314066,
          -0.10153508102664266,
          0.7546311838129827,
          -0.38639484847560046,
          -0.5557115390484328,
          -0.34220404675435656,
          0.11459700308236953,
          -0.18894009216589858,
          -0.5537583544419691,
          -0.40781884212775044,
          -0.6770531327249978,
          0.6555681020538957,
          0.9920651875362407,
          0.25205236976226075,
          0.8462477492599261,
          -0.6066164128543963,
          -0.5934934537797174,
          -0.5275734733115635,
          0.7507858516190069
        ]
      }
    },
    "m_iHiddenCount": 6,
    "m_iInputCount": 5,
    "m_iOutputCount": 1,
    "m_iScore": -10
  },
  {
    "m_NNJson": {
      "dLearningRate": 0.1,
      "iHiddenNodes": 6,
      "iInputNodes": 5,
      "iOutputNodes": 1,
      "mBiasHidden": {
        "iCols": 1,
        "iRows": 6,
        "vData": [
          -0.8748741111484115,
          -0.7051911984618671,
          -0.022492141483809958,
          -0.5372783593249306,
          0.08212530899990855,
          0.9746086001159704
        ]
      },
      "mBiasOutput": {
        "iCols": 1,
        "iRows": 1,
        "vData": [
          -0.881344035157323
        ]
      },
      "mHiddenWeights": {
        "iCols": 6,
        "iRows": 1,
        "vData": [
          0.8695638904995879,
          0.542832728049562,
          -0.21579638050477612,
          0.4082461012604144,
          -0.9041108432264169,
          -0.45963927121799375
        ]
      },
      "mInputWeights": {
        "iCols": 5,
        "iRows": 6,
        "vData": [
          -0.24033326212347794,
          -0.8281197546311838,
          0.8286080507827998,
          -0.009979552598651131,
          -0.32340464491714227,
          -0.5918454542680136,
          -0.07174901577806936,
          -0.04293954283272805,
          -0.09677419354838712,
          0.5674916837061679,
          0.26499221778008364,
          -0.4930875576036866,
          -0.4379100924710837,
          0.7010406811731316,
          0.4283883175145726,
          -0.358867152928251,
          0.336649678029725,
          -0.3068636127811518,
          0.9616687520981475,
          -0.8583941160313731,
          -0.3519089327677236,
          0.9804681539353617,
          -0.5457014679403058,
          0.5411847285378582,
          0.9926145207068087,
          -0.20975371562852874,
          0.07699819940794095,
          0.7704397717215492,
          0.25107577745902887,
          -0.5388042847987304
        ]
      }
    },
    "m_iHiddenCount": 6,
    "m_iInputCount": 5,
    "m_iOutputCount": 1,
    "m_iScore": -100
  },
  {
    "m_NNJson": {
      "dLearningRate": 0.1,
      "iHiddenNodes": 6,
      "iInputNodes": 5,
      "iOutputNodes": 1,
      "mBiasHidden": {
        "iCols": 1,
        "iRows": 6,
        "vData": [
          -0.9351176488540299,
          0.6894436475722525,
          0.8251899777214882,
          0.8072450941496017,
          0.44199957274086743,
          -0.4522537919248024
        ]
      },
      "mBiasOutput": {
        "iCols": 1,
        "iRows": 1,
        "vData": [
          0.9415875728629415
        ]
      },
      "mHiddenWeights": {
        "iCols": 6,
        "iRows": 1,
        "vData": [
          -0.05325479903561514,
          0.9841914120914335,
          -0.6592303231910154,
          0.39829706717123936,
          0.24106570635090185,
          0.47477645191808837
        ]
      },
      "mInputWeights": {
        "iCols": 5,
        "iRows": 6,
        "vData": [
          0.0021057771538437464,
          -0.9361552781762139,
          0.7648854029969177,
          -0.06472975859859009,
          -0.19376201666310622,
          0.4405957213049714,
          -0.38480788598284865,
          0.40018921475875113,
          -0.5074922940763573,
          -0.2483901486251412,
          -0.2676778466139714,
          0.41770683919797347,
          0.7751396221808526,
          0.5743888668477433,
          -0.7750785851619006,
          0.13888973662526327,
          0.7678762169255653,
          -0.13486129337443165,
          -0.6692403942991425,
          0.5316019165623951,
          -0.4743491927854243,
          -0.4147160252693258,
          0.7877132480849636,
          0.5159764397106845,
          -0.11368144779808953,
          -0.5747550889614551,
          0.9120456556901761,
          -0.02029480880153811,
          -0.3238929410687582,
          0.4385204626606036
        ]
      }
    },
    "m_iHiddenCount": 6,
    "m_iInputCount": 5,
    "m_iOutputCount": 1,
    "m_iScore": -10
  },
  {
    "m_NNJson": {
      "dLearningRate": 0.1,
      "iHiddenNodes": 6,
      "iInputNodes": 5,
      "iOutputNodes": 1,
      "mBiasHidden": {
        "iCols": 1,
        "iRows": 6,
        "vData": [
          -0.35007782219916384,
          0.488082522049623,
          0.25742362743003633,
          0.5581530198065126,
          0.4497512741477707,
          0.5331278420361949
        ]
      },
      "mBiasOutput": {
        "iCols": 1,
        "iRows": 1,
        "vData": [
          -0.4107486190374462
        ]
      },
      "mHiddenWeights": {
        "iCols": 6,
        "iRows": 1,
        "vData": [
          -0.23453474532303842,
          0.9211401715140233,
          -0.027069917905209517,
          0.3069856868190557,
          0.6985381633960996,
          0.7556688131351665
        ]
      },
      "mInputWeights": {
        "iCols": 5,
        "iRows": 6,
        "vData": [
          -0.596484267708365,
          0.7581102938932462,
          -0.5400860621967223,
          -0.9039887691885128,
          -0.1514023255104221,
          0.9509872737815486,
          -0.4642780846583453,
          -0.8089541306802576,
          -0.25888851588488415,
          -0.6926175725577564,
          0.6653340250862148,
          0.3028962065492722,
          -0.3892635883663442,
          -0.03805658131656853,
          0.2746360667744987,
          -0.3334757530442213,
          0.21451460310678416,
          0.25791192358165227,
          0.4905240028077029,
          -0.5702383495590075,
          0.5240333262123478,
          0.03530991546372886,
          0.5287331766716514,
          0.739432966093936,
          -0.28281502731406594,
          0.9060640278328806,
          -0.8831751457258827,
          -0.2781151768547624,
          -0.5140842921231727,
          0.5804315317239905
        ]
      }
    },
    "m_iHiddenCount": 6,
    "m_iInputCount": 5,
    "m_iOutputCount": 1,
    "m_iScore": -10
  },
  {
    "m_NNJson": {
      "dLearningRate": 0.1,
      "iHiddenNodes": 6,
      "iInputNodes": 5,
      "iOutputNodes": 1,
      "mBiasHidden": {
        "iCols": 1,
        "iRows": 6,
        "vData": [
          -0.7231971190527055,
          -0.6862086855677969,
          0.7318033387249367,
          -0.9339579454939421,
          -0.22574541459395125,
          -0.9102145451216163
        ]
      },
      "mBiasOutput": {
        "iCols": 1,
        "iRows": 1,
        "vData": [
          0.10293893246253849
        ]
      },
      "mHiddenWeights": {
        "iCols": 6,
        "iRows": 1,
        "vData": [
          0.16031373027741336,
          -0.01547288430433058,
          0.7737968077639088,
          0.7250282296212653,
          -0.3990295113986633,
          0.7247840815454574
        ]
      },
      "mInputWeights": {
        "iCols": 5,
        "iRows": 6,
        "vData": [
          -0.24094363231299787,
          0.46476638080996113,
          0.013763847773674787,
          -0.5664540543839839,
          0.7775811029389326,
          -0.47569200720236826,
          -0.8187810907315287,
          0.8187200537125767,
          0.18204290902432319,
          -0.03659169286172059,
          -0.08969389934995575,
          0.48100222785119184,
          -0.31766716513565474,
          -0.10440382091738643,
          -0.869258705404828,
          0.8191473128452407,
          -0.4831385235145116,
          -0.6979888302255317,
          -0.18955046235541861,
          -0.8037659840693381,
          -0.20346690267647327,
          0.24930570390942108,
          -0.4488357188634907,
          0.4020203253273109,
          0.3682668538468581,
          -0.4507889034699545,
          -0.13980529190954316,
          -0.9126560258796961,
          0.7606128116702779,
          -0.8283028656880398
        ]
      }
    },
    "m_iHiddenCount": 6,
    "m_iInputCount": 5,
    "m_iOutputCount": 1,
    "m_iScore": -10
  },
  {
    "m_NNJson": {
      "dLearningRate": 0.1,
      "iHiddenNodes": 6,
      "iInputNodes": 5,
      "iOutputNodes": 1,
      "mBiasHidden": {
        "iCols": 1,
        "iRows": 6,
        "vData": [
          -0.25461592455824456,
          0.7096469008453627,
          -0.3782158879360332,
          -0.28031250953703424,
          -0.8242744224372082,
          -0.2007202368236335
        ]
      },
      "mBiasOutput": {
        "iCols": 1,
        "iRows": 1,
        "vData": [
          -0.7701345866267891
        ]
      },
      "mHiddenWeights": {
        "iCols": 6,
        "iRows": 1,
        "vData": [
          -0.7465742973113193,
          -0.9370708334604938,
          0.2671285134434034,
          -0.3462935270241402,
          0.804315317239906,
          -0.5012665181432538
        ]
      },
      "mInputWeights": {
        "iCols": 5,
        "iRows": 6,
        "vData": [
          -0.6565446943571276,
          0.30466628009887997,
          -0.1946775719473861,
          -0.1470686971648305,
          -0.045075838496047904,
          0.23398541215247048,
          0.6837672048097172,
          -0.652394177068392,
          0.6942045350505082,
          -0.4942472609637746,
          0.9188207647938476,
          0.9326151310769981,
          -0.2552873317667165,
          0.9109469893490403,
          -0.8847010711996826,
          0.8607745597705008,
          -0.8548539689321574,
          0.9396343882564775,
          0.9837031159398175,
          -0.5410016174810022,
          0.5411236915189062,
          -0.2226935636463515,
          -0.39915158543656726,
          -0.4049501022370068,
          0.03353984191412085,
          0.008636738181707182,
          -0.4496292001098666,
          -0.4923551133762627,
          -0.06173894466994234,
          0.5898312326425976
        ]
      }
    },
    "m_iHiddenCount": 6,
    "m_iInputCount": 5,
    "m_iOutputCount": 1,
    "m_iScore": -100
  },
  {
    "m_NNJson": {
      "dLearningRate": 0.1,
      "iHiddenNodes": 6,
      "iInputNodes": 5,
      "iOutputNodes": 1,
      "mBiasHidden": {
        "iCols": 1,
        "iRows": 6,
        "vData": [
          -0.5163426618243965,
          -0.2645649586474197,
          0.8541215247047333,
          0.9966429639576404,
          -0.2864772484511856,
          0.21036408581804866
        ]
      },
      "mBiasOutput": {
        "iCols": 1,
        "iRows": 1,
        "vData": [
          -0.4660481582079531
        ]
      },
      "mHiddenWeights": {
        "iCols": 6,
        "iRows": 1,
        "vData": [
          0.24008911404766997,
          0.9935911130100405,
          -0.5629749443037202,
          -0.6426282540360728,
          0.7571947386089664,
          -0.6641743217261269
        ]
      },
      "mInputWeights": {
        "iCols": 5,
        "iRows": 6,
        "vData": [
          -0.7944273201696829,
          0.9634388256477553,
          0.17325357829523602,
          -0.5204321420941801,
          0.5958128604998931,
          -0.3870052186651204,
          0.04867702261421547,
          -0.4752647480697043,
          0.01174962614825903,
          -0.988647114474929,
          0.012359996337778956,
          -0.13559373760185556,
          0.1801507614368114,
          -0.6923734244819483,
          -0.37034211249122595,
          0.7637256996368298,
          0.4194769127475815,
          -0.7967467268898587,
          -0.17563402203436385,
          -0.6332285531174657,
          0.5525986510818812,
          0.4653157139805293,
          0.5894650105288857,
          0.8129215369121372,
          0.8071230201116977,
          0.47422711874752044,
          0.5927610095522935,
          -0.3306070131534776,
          0.7669606616412854,
          -0.380108035523545
        ]
      }
    },
    "m_iHiddenCount": 6,
    "m_iInputCount": 5,
    "m_iOutputCount": 1,
    "m_iScore": -100
  },
  {
    "m_NNJson": {
      "dLearningRate": 0.1,
      "iHiddenNodes": 6,
      "iInputNodes": 5,
      "iOutputNodes": 1,
      "mBiasHidden": {
        "iCols": 1,
        "iRows": 6,
        "vData": [
          -0.9475081637012849,
          -0.14389477217932678,
          -0.7033600878933073,
          0.3965269936216316,
          0.9057588427381207,
          0.7319254127628407
        ]
      },
      "mBiasOutput": {
        "iCols": 1,
        "iRows": 1,
        "vData": [
          -0.1488387707144383
        ]
      },
      "mHiddenWeights": {
        "iCols": 6,
        "iRows": 1,
        "vData": [
          0.01547288430433058,
          -0.7900936918240913,
          -0.5452742088076419,
          0.42210150456251716,
          -0.14474929044465468,
          -0.7711111789300211
        ]
      },
      "mInputWeights": {
        "iCols": 5,
        "iRows": 6,
        "vData": [
          -0.14999847407452616,
          0.8527787102877895,
          0.5572985015411847,
          0.60917996765038,
          0.04617450483718377,
          0.6904202398754844,
          -0.30826746421704765,
          -0.5136570329905088,
          -0.09494308297982723,
          -0.3534958952604754,
          -0.7861873226111636,
          -0.2159184545426801,
          0.31406598101748706,
          0.8291573839533677,
          -0.5123142185735649,
          0.34482863856929225,
          -0.057710501419110716,
          -0.35776848658711513,
          -0.9318216498306222,
          0.20371105075228124,
          0.5834833826715904,
          -0.9936521500289925,
          -0.7114780114139225,
          0.0773644215216529,
          0.9404889065218054,
          -0.7445600756859034,
          0.8196966460158086,
          -0.06570635090182197,
          0.16342661824396498,
          0.771843623157445
        ]
      }
    },
    "m_iHiddenCount": 6,
    "m_iInputCount": 5,
    "m_iOutputCount": 1,
    "m_iScore": -100
  },
  {
    "m_NNJson": {
      "dLearningRate": 0.1,
      "iHiddenNodes": 6,
      "iInputNodes": 5,
      "iOutputNodes": 1,
      "mBiasHidden": {
        "iCols": 1,
        "iRows": 6,
        "vData": [
          -0.6360972930082095,
          -0.5607165746024965,
          0.05087435529648743,
          -0.54429761650441,
          -0.7362590411084322,
          -0.4515823847163305
        ]
      },
      "mBiasOutput": {
        "iCols": 1,
        "iRows": 1,
        "vData": [
          -0.761223181859798
        ]
      },
      "mHiddenWeights": {
        "iCols": 6,
        "iRows": 1,
        "vData": [
          -0.4914395580919828,
          -0.2219000823999756,
          0.7024445326090274,
          0.5381939146092105,
          0.78209784234138,
          -0.934446241645558
        ]
      },
      "mInputWeights": {
        "iCols": 5,
        "iRows": 6,
        "vData": [
          -0.2773216956083865,
          0.35319071016571546,
          0.9287697988830226,
          -0.8056581316568499,
          -0.7603076265755181,
          -0.881344035157323,
          0.8109683523056734,
          0.6246833704641865,
          0.8781701101718191,
          0.935605945005646,
          -0.3945127719962157,
          0.1811883907589953,
          0.36088137455366676,
          0.11227759636219359,
          0.9544663838618122,
          0.23532822656941432,
          -0.31949827570421463,
          0.3518478957487716,
          -0.293313394573809,
          -0.6334116641743217,
          0.7203894161809137,
          0.13803521835993537,
          -0.9903561510055849,
          -0.663258766441847,
          -0.4169133579515977,
          3.0518509475996325e-05,
          -0.23526718955046233,
          0.9736930448316905,
          0.18820764793847466,
          -0.030976287118137158
        ]
      }
    },
    "m_iHiddenCount": 6,
    "m_iInputCount": 5,
    "m_iOutputCount": 1,
    "m_iScore": -100
  },
  {
    "m_NNJson": {
      "dLearningRate": 0.1,
      "iHiddenNodes": 6,
      "iInputNodes": 5,
      "iOutputNodes": 1,
      "mBiasHidden": {
        "iCols": 1,
        "iRows": 6,
        "vData": [
          -0.14822840052491837,
          -0.20224616229743342,
          -0.08731345561082793,
          0.84881130405591,
          -0.22067934202093564,
          0.027985473189489518
        ]
      },
      "mBiasOutput": {
        "iCols": 1,
        "iRows": 1,
        "vData": [
          0.39060640278328806
        ]
      },
      "mHiddenWeights": {
        "iCols": 6,
        "iRows": 1,
        "vData": [
          0.4830774864955596,
          0.22312082277901557,
          -0.1394390697958312,
          0.7883846552934355,
          0.24546037171544532,
          0.8707846308786278
        ]
      },
      "mInputWeights": {
        "iCols": 5,
        "iRows": 6,
        "vData": [
          0.522080141605884,
          0.6472060304574725,
          0.23264259773552665,
          0.9367656483657338,
          -0.5855586413159581,
          0.29630420850245676,
          -0.5489974669637134,
          -0.6493423261207922,
          0.2662129581591235,
          0.5580309457686086,
          0.9218115787224952,
          0.04953154087954337,
          -0.8004089480269784,
          -0.4215521713919492,
          -0.3315225684377575,
          0.576952421643727,
          0.7408368175298319,
          -0.6928617206335643,
          0.2574846644489883,
          0.9886471144749291,
          0.45811334574419393,
          0.8333079012421034,
          -0.9605700857570116,
          0.37797173986022514,
          -0.36509292886135436,
          -0.38377025666066467,
          0.707388531144139,
          0.4523758659627064,
          0.7903988769188512,
          0.17368083742789997
        ]
      }
    },
    "m_iHiddenCount": 6,
    "m_iInputCount": 5,
    "m_iOutputCount": 1,
    "m_iScore": -10
  },
  {
    "m_NNJson": {
      "dLearningRate": 0.1,
      "iHiddenNodes": 6,
      "iInputNodes": 5,
      "iOutputNodes": 1,
      "mBiasHidden": {
        "iCols": 1,
        "iRows": 6,
        "vData": [
          -0.8829920346690268,
          -0.06985686819055759,
          -0.6273689992980742,
          0.9727774895474106,
          0.6703390606402784,
          0.2432020020142216
        ]
      },
      "mBiasOutput": {
        "iCols": 1,
        "iRows": 1,
        "vData": [
          0.050141911069063294
        ]
      },
      "mHiddenWeights": {
        "iCols": 6,
        "iRows": 1,
        "vData": [
          -0.7520676290169988,
          0.6913968321787163,
          -0.21494186223944822,
          -0.8272652363658559,
          -0.8178044984282967,
          -0.9001434369945371
        ]
      },
      "mInputWeights": {
        "iCols": 5,
        "iRows": 6,
        "vData": [
          0.2883083590197455,
          -0.2959990234076968,
          0.9342631305887021,
          -0.5998413037507249,
          0.7658009582811975,
          -0.3213904232917264,
          -0.9883419293801691,
          0.49620044557023846,
          -0.5032197027497177,
          -0.5829950865199743,
          0.037568285164952586,
          0.5899533066805018,
          0.017609179967650324,
          0.49858088930936617,
          -0.2917264320810572,
          0.28867458113345745,
          0.41819513534958963,
          -0.07980590227973261,
          0.23331400494399857,
          0.3630176702169865,
          -0.8120670186468093,
          0.8084658345286415,
          -0.5510727256080813,
          0.6569719534897915,
          -0.2626117740409558,
          -0.8956877346110416,
          0.013580736716818809,
          0.7509079256569109,
          -0.34153263954588453,
          0.033234656819360886
        ]
      }
    },
    "m_iHiddenCount": 6,
    "m_iInputCount": 5,
    "m_iOutputCount": 1,
    "m_iScore": -100
  },
  {
    "m_NNJson": {
      "dLearningRate": 0.1,
      "iHiddenNodes": 6,
      "iInputNodes": 5,
      "iOutputNodes": 1,
      "mBiasHidden": {
        "iCols": 1,
        "iRows": 6,
        "vData": [
          -0.33390301217688523,
          -0.7831354716635639,
          -0.95623645741142,
          -0.6337778862880337,
          0.2654805139316996,
          -0.8610187078463087
        ]
      },
      "mBiasOutput": {
        "iCols": 1,
        "iRows": 1,
        "vData": [
          -0.7077547532578509
        ]
      },
      "mHiddenWeights": {
        "iCols": 6,
        "iRows": 1,
        "vData": [
          0.5875118259224219,
          0.4184392834253976,
          0.5826899014252145,
          0.19602038636432995,
          0.8062685018463698,
          0.31931516464735865
        ]
      },
      "mInputWeights": {
        "iCols": 5,
        "iRows": 6,
        "vData": [
          0.48509170812097535,
          0.31492049928281496,
          0.3152867213965269,
          0.16379284035767694,
          -0.8887295144505143,
          -0.33622241889706106,
          0.19919431134983356,
          -0.11929685354167308,
          0.3743095187231056,
          -0.9249244666890469,
          -0.9599597155674917,
          0.10605182042909034,
          -0.46397289956358534,
          -0.16977446821497233,
          0.7918637653736991,
          0.5848261970885342,
          -0.4576860866115299,
          -0.45011749626148256,
          0.21805475020599996,
          -0.8518631550035096,
          -0.46641438032166505,
          -0.08865627002777188,
          -0.008941923276467145,
          -0.3334147160252693,
          -0.7651295510727256,
          0.7287514877773369,
          0.7011017181920836,
          -0.7267372661519211,
          -0.46281319620349737,
          -0.5411847285378582
        ]
      }
    },
    "m_iHiddenCount": 6,
    "m_iInputCount": 5,
    "m_iOutputCount": 1,
    "m_iScore": -10
  },
  {
    "m_NNJson": {
      "dLearningRate": 0.1,
      "iHiddenNodes": 6,
      "iInputNodes": 5,
      "iOutputNodes": 1,
      "mBiasHidden": {
        "iCols": 1,
        "iRows": 6,
        "vData": [
          0.4230493559641635,
          0.10521771232141151,
          -0.7792494598790359,
          0.4523188279406708,
          0.7724141836720987,
          -0.5068364812819945
        ]
      },
      "mBiasOutput": {
        "iCols": 1,
        "iRows": 1,
        "vData": [
          1.3218036804484006
        ]
      },
      "mHiddenWeights": {
        "iCols": 6,
        "iRows": 1,
        "vData": [
          1.8883344112139007,
          0.5454495604004101,
          0.2961234289398124,
          2.00523517921988,
          0.6269284479885244,
          0.32112080666390747
        ]
      },
      "mInputWeights": {
        "iCols": 5,
        "iRows": 6,
        "vData": [
          0.6391450552045469,
          1.7045779260141614,
          1.2816387119242023,
          0.9404149382219847,
          0.7185870222347778,
          0.611953722651439,
          0.8406148336738014,
          0.3475358438388787,
          0.09278820862195127,
          0.25138610838583453,
          -0.49509921145866476,
          0.7132465060861658,
          -0.5448263292433012,
          1.13162497076631,
          -0.5990252581553388,
          0.2623670096649972,
          0.40952165447568095,
          -0.3965509818573736,
          0.12466811120944854,
          0.1611574595722341,
          0.5044780209015646,
          -0.6533460184975292,
          0.8690241157578305,
          0.815652278507202,
          0.35237211459745355,
          0.27179538635035133,
          -0.4582030241964303,
          0.02666769190757708,
          0.80154427433904,
          0.34778805376707844
        ]
      }
    },
    "m_iHiddenCount": 6,
    "m_iInputCount": 5,
    "m_iOutputCount": 1,
    "m_iScore": -10
  },
  {
    "m_NNJson": {
      "dLearningRate": 0.1,
      "iHiddenNodes": 6,
      "iInputNodes": 5,
      "iOutputNodes": 1,
      "mBiasHidden": {
        "iCols": 1,
        "iRows": 6,
        "vData": [
          0.12283700064088876,
          -0.7662282174138615,
          -0.30301828058717617,
          0.6993316446424758,
          0.17575609607226772,
          0.31839960936307876
        ]
      },
      "mBiasOutput": {
        "iCols": 1,
        "iRows": 1,
        "vData": [
          -0.8927579577013458
        ]
      },
      "mHiddenWeights": {
        "iCols": 6,
        "iRows": 1,
        "vData": [
          -0.15884884182256542,
          -0.5289773247474594,
          -0.6664326914273506,
          -0.8319040498062075,
          -0.6378673665578174,
          0.7957090975676748
        ]
      },
      "mInputWeights": {
        "iCols": 5,
        "iRows": 6,
        "vData": [
          -0.4700155644398327,
          -0.2159794915616321,
          -0.5074922940763573,
          -0.3113803521835994,
          -0.06442457350383002,
          -0.7107455671864986,
          0.14304025391399877,
          0.2424085207678457,
          0.7466963713492234,
          -0.5261085848567155,
          -0.37040314951017794,
          -0.022614215521713943,
          0.008087405011139248,
          -0.8616290780358287,
          -0.2526017029328288,
          -0.08047730948820464,
          0.40849024933622236,
          -0.08346812341685228,
          -0.5058442945646535,
          0.37711722159489725,
          0.11801507614368112,
          -0.9858394116031373,
          -0.8950773644215216,
          0.08737449262977992,
          -0.40244758445997497,
          0.029694509720145312,
          -0.15964232306894133,
          0.10165715506454664,
          0.19418927579577017,
          0.4191106906338695
        ]
      }
    },
    "m_iHiddenCount": 6,
    "m_iInputCount": 5,
    "m_iOutputCount": 1,
    "m_iScore": -100
  },
  {
    "m_NNJson": {
      "dLearningRate": 0.1,
      "iHiddenNodes": 6,
      "iInputNodes": 5,
      "iOutputNodes": 1,
      "mBiasHidden": {
        "iCols": 1,
        "iRows": 6,
        "vData": [
          0.9989013336588641,
          0.5963621936704611,
          0.13803521835993537,
          -0.7127597888119144,
          -0.8125553147984252,
          0.4302194280831324
        ]
      },
      "mBiasOutput": {
        "iCols": 1,
        "iRows": 1,
        "vData": [
          -0.08957182531205177
        ]
      },
      "mHiddenWeights": {
        "iCols": 6,
        "iRows": 1,
        "vData": [
          -0.16702780236213266,
          -0.15598010193182166,
          -0.978148747215186,
          -0.8764000366222113,
          -0.8930631427961059,
          -0.2916653950621052
        ]
      },
      "mInputWeights": {
        "iCols": 5,
        "iRows": 6,
        "vData": [
          -0.7073274941251869,
          -0.5261696218756675,
          0.5373393963438826,
          0.06784264656514183,
          -0.3127231666005432,
          0.07406842249824508,
          0.544724875637074,
          -0.858821375164037,
          -0.3773613696707053,
          -0.522324289681692,
          0.6777245399334697,
          -0.20706808679464095,
          0.2692648091067231,
          0.4709921567430646,
          0.6838282418286692,
          -0.5386211737418745,
          0.2698141422772913,
          -0.7483443708609272,
          0.5918454542680136,
          -0.8061464278084658,
          0.08145390179143641,
          0.652821436201056,
          0.29050569170201723,
          -0.8388012329477829,
          0.6807763908810693,
          0.27665028839991446,
          0.37620166631061736,
          0.36429944761497857,
          -0.30491042817468794,
          0.35154271065401166
        ]
      }
    },
    "m_iHiddenCount": 6,
    "m_iInputCount": 5,
    "m_iOutputCount": 1,
    "m_iScore": -100
  },
  {
    "m_NNJson": {
      "dLearningRate": 0.1,
      "iHiddenNodes": 6,
      "iInputNodes": 5,
      "iOutputNodes": 1,
      "mBiasHidden": {
        "iCols": 1,
        "iRows": 6,
        "vData": [
          0.47740104373302406,
          0.10898159733878598,
          0.38560136722922445,
          -0.7018951994384595,
          0.5627918332468642,
          0.07382427442243711
        ]
      },
      "mBiasOutput": {
        "iCols": 1,
        "iRows": 1,
        "vData": [
          0.6915189062166205
        ]
      },
      "mHiddenWeights": {
        "iCols": 6,
        "iRows": 1,
        "vData": [
          -0.9752189703054903,
          -0.935544907986694,
          -0.6393322550126652,
          -0.055879390850550825,
          0.6240730002746666,
          -0.2464980010376293
        ]
      },
      "mInputWeights": {
        "iCols": 5,
        "iRows": 6,
        "vData": [
          0.7302163762321847,
          0.8320261238441113,
          0.814935758537553,
          -0.91369365520188,
          -0.6434827723014007,
          -0.9427472762230292,
          0.12717062898648024,
          0.2831202124088259,
          -0.9270607623523667,
          -0.13315225684377574,
          0.185338908047731,
          -0.4419995727408673,
          0.16959135715811646,
          0.0045472579119236745,
          0.9151585436567278,
          -0.3377483443708609,
          -0.19248023926511426,
          0.7419965208899197,
          -0.7626270332956938,
          0.6275521103549302,
          0.510422070986053,
          -0.3461714529862362,
          -0.008941923276467145,
          0.24625385296182145,
          0.9721060823389385,
          -0.5553453169347209,
          -0.2957548753318888,
          0.009491256447035079,
          0.49345377971739857,
          -0.1114841151158178
        ]
      }
    },
    "m_iHiddenCount": 6,
    "m_iInputCount": 5,
    "m_iOutputCount": 1,
    "m_iScore": -100
  },
  {
    "m_NNJson": {
      "dLearningRate": 0.1,
      "iHiddenNodes": 6,
      "iInputNodes": 5,
      "iOutputNodes": 1,
      "mBiasHidden": {
        "iCols": 1,
        "iRows": 6,
        "vData": [
          0.5112765892513809,
          -0.5152439954832606,
          -0.3997619556260872,
          -0.6948149052400281,
          -0.4413892025513474,
          -0.8740195928830836
        ]
      },
      "mBiasOutput": {
        "iCols": 1,
        "iRows": 1,
        "vData": [
          -0.8566850795007172
        ]
      },
      "mHiddenWeights": {
        "iCols": 6,
        "iRows": 1,
        "vData": [
          -0.73863948484756,
          0.9940183721427045,
          -0.782280953398236,
          -0.2544328135013886,
          -0.826654866176336,
          -0.9691763054292428
        ]
      },
      "mInputWeights": {
        "iCols": 5,
        "iRows": 6,
        "vData": [
          -0.8101748710592975,
          0.2294076357310708,
          -0.25980407116916415,
          -0.381145664845729,
          0.8503982665486618,
          -0.7481612598040712,
          0.6646015808587908,
          0.859187597277749,
          -0.8755455183568834,
          0.3392742698446607,
          -0.010284737693411095,
          0.17239906002990812,
          0.16647846919156462,
          -0.2752464369640186,
          -0.07248146000549338,
          -0.8106631672109135,
          -0.7153843806268502,
          -0.11679433576464127,
          0.8552201910458692,
          0.3733939634388257,
          -0.695730460524308,
          0.6907254249702444,
          -0.913449507126072,
          -0.04446546830652787,
          -0.9861445966978972,
          0.33811456648457283,
          -0.6175420392468032,
          0.6545304727317118,
          0.25461592455824467,
          0.3103427228614155
        ]
      }
    },
    "m_iHiddenCount": 6,
    "m_iInputCount": 5,
    "m_iOutputCount": 1,
    "m_iScore": -100
  },
  {
    "m_NNJson": {
      "dLearningRate": 0.1,
      "iHiddenNodes": 6,
      "iInputNodes": 5,
      "iOutputNodes": 1,
      "mBiasHidden": {
        "iCols": 1,
        "iRows": 6,
        "vData": [
          0.7695242164372691,
          -0.38975188451796017,
          0.5201269569994202,
          -0.33457441938535726,
          -0.9079561754203924,
          -0.23776970732749414
        ]
      },
      "mBiasOutput": {
        "iCols": 1,
        "iRows": 1,
        "vData": [
          -0.7128208258308664
        ]
      },
      "mHiddenWeights": {
        "iCols": 6,
        "iRows": 1,
        "vData": [
          -0.7714774010437331,
          0.5410016174810022,
          0.17398602252265993,
          -0.7417523728141118,
          0.9724112674336984,
          -0.8218329416791283
        ]
      },
      "mInputWeights": {
        "iCols": 5,
        "iRows": 6,
        "vData": [
          0.826349681081576,
          -0.10831019013031407,
          -0.6053956724753563,
          0.6627704702902311,
          0.9056367687002167,
          0.901425214392529,
          -0.8574785607470932,
          -0.47062593462935265,
          0.6501968443861201,
          0.6071047090060122,
          -0.7109286782433546,
          -0.9472029786065248,
          0.9290139469588305,
          -0.9913937803277688,
          -0.9847407452620014,
          -0.8522293771172216,
          0.6237678151799066,
          0.5826899014252145,
          0.5251930295724356,
          -0.6988433484908597,
          -0.02188177129429003,
          -0.5140232551042208,
          -0.3147373882259591,
          -0.097811822870571,
          0.8567461165196693,
          0.02829065828424948,
          0.8564409314249093,
          0.9985961485641042,
          0.7264931180761132,
          -0.022675252540665936
        ]
      }
    },
    "m_iHiddenCount": 6,
    "m_iInputCount": 5,
    "m_iOutputCount": 1,
    "m_iScore": -100
  },
  {
    "m_NNJson": {
      "dLearningRate": 0.1,
      "iHiddenNodes": 6,
      "iInputNodes": 5,
      "iOutputNodes": 1,
      "mBiasHidden": {
        "iCols": 1,
        "iRows": 6,
        "vData": [
          0.7964415417950987,
          -0.25742746807955386,
          -0.8634756744777953,
          -0.994493574599982,
          -0.016169155238862983,
          -0.34290932841655597
        ]
      },
      "mBiasOutput": {
        "iCols": 1,
        "iRows": 1,
        "vData": [
          3.6069709959097263
        ]
      },
      "mHiddenWeights": {
        "iCols": 6,
        "iRows": 1,
        "vData": [
          0.37192907498397787,
          -3.9729080588582546,
          -0.8070767623526331,
          1.2976158044145696,
          0.2575840166433687,
          -4.611519815914043
        ]
      },
      "mInputWeights": {
        "iCols": 5,
        "iRows": 6,
        "vData": [
          -0.05124057741019927,
          -0.2735984374523148,
          -0.3086947233497116,
          -0.8518021179845576,
          -0.012543107394634823,
          0.8940129486708921,
          2.5397389665179473,
          1.0512927568188306,
          2.9283076582851812,
          0.7992552726235388,
          -0.3558496291986831,
          -0.47252718672769306,
          -0.10464067418016117,
          -0.32657981943606634,
          -0.21278516837866263,
          -0.7880087634066715,
          -1.2022715492932026,
          -0.397362360369424,
          -0.7066853390177369,
          -0.5152754942994963,
          -1.81452333307506,
          -1.9589321677907345,
          -0.20160516312786592,
          -1.134712829960102,
          0.3252193271289379,
          -56.88240422779792,
          -85.94349715806176,
          -9.712611417331669,
          -86.21299366349197,
          5.497790619798119
        ]
      }
    },
    "m_iHiddenCount": 6,
    "m_iInputCount": 5,
    "m_iOutputCount": 1,
    "m_iScore": -100
  },
  {
    "m_NNJson": {
      "dLearningRate": 0.1,
      "iHiddenNodes": 6,
      "iInputNodes": 5,
      "iOutputNodes": 1,
      "mBiasHidden": {
        "iCols": 1,
        "iRows": 6,
        "vData": [
          0.7423627430036317,
          0.15427106540116586,
          -0.7122714926602984,
          0.8020569475386823,
          -0.5524765770439772,
          -0.8519241920224616
        ]
      },
      "mBiasOutput": {
        "iCols": 1,
        "iRows": 1,
        "vData": [
          0.5289773247474594
        ]
      },
      "mHiddenWeights": {
        "iCols": 6,
        "iRows": 1,
        "vData": [
          0.8102359080782495,
          -0.6376232184820093,
          0.1564073610644856,
          0.5313577684865871,
          -0.18948942533646662,
          -0.2637104403820918
        ]
      },
      "mInputWeights": {
        "iCols": 5,
        "iRows": 6,
        "vData": [
          -0.4828333384197516,
          -0.7982726523636585,
          -0.11526841029084145,
          0.2262337107455672,
          0.22885830256050288,
          -0.45542771691030615,
          -0.5894039735099338,
          0.020416882839442207,
          -0.3748588518936735,
          -0.6641743217261269,
          -0.8521683400982696,
          0.3238319040498061,
          -0.3730277413251136,
          0.22342600787377553,
          0.9190038758507035,
          0.368816187017426,
          -0.5637073885311441,
          0.903378398998993,
          0.7308877834406569,
          0.8506424146244698,
          -0.1795403912472915,
          -0.4837488937040315,
          -0.16537980285042875,
          -0.0025940733054597986,
          -0.8497268593401899,
          0.782341990417188,
          -0.4296090578936125,
          0.2857448042237618,
          -0.4948576311532945,
          0.9372539445173498
        ]
      }
    },
    "m_iHiddenCount": 6,
    "m_iInputCount": 5,
    "m_iOutputCount": 1,
    "m_iScore": -10
  },
  {
    "m_NNJson": {
      "dLearningRate": 0.1,
      "iHiddenNodes": 6,
      "iInputNodes": 5,
      "iOutputNodes": 1,
      "mBiasHidden": {
        "iCols": 1,
        "iRows": 6,
        "vData": [
          -0.18576616718039496,
          -0.12985625782036803,
          0.8541825617236853,
          0.43424787133396414,
          -0.8641926328318125,
          0.5913571581163977
        ]
      },
      "mBiasOutput": {
        "iCols": 1,
        "iRows": 1,
        "vData": [
          0.8866542558061463
        ]
      },
      "mHiddenWeights": {
        "iCols": 6,
        "iRows": 1,
        "vData": [
          0.03445539719840074,
          0.11355937376018566,
          0.304422132023072,
          0.8643757438886686,
          -0.46403393658253733,
          0.21964171269875177
        ]
      },
      "mInputWeights": {
        "iCols": 5,
        "iRows": 6,
        "vData": [
          -0.24192022461622975,
          0.49778740806299027,
          0.37144077883236193,
          -0.6500747703482161,
          0.9820551164281137,
          0.2845851008636737,
          -0.923520615253151,
          -0.28611102633747365,
          0.42545854060487676,
          0.43082979827265233,
          0.9622180852687154,
          -0.17795342875453968,
          0.5906247138889738,
          -0.8897061067537462,
          -0.5349589526047548,
          0.4904629657887509,
          0.6519669179357279,
          0.9336527603991822,
          -0.6482436597796564,
          0.6234015930661947,
          -0.7157506027405621,
          0.7133701590014343,
          0.6741843928342539,
          -0.40256965849787896,
          0.7607348857081819,
          -0.5800653096102786,
          0.1504257332071901,
          -0.6314584795678579,
          -0.11728263191625721,
          -0.35764641254921115
        ]
      }
    },
    "m_iHiddenCount": 6,
    "m_iInputCount": 5,
    "m_iOutputCount": 1,
    "m_iScore": -10
  },
  {
    "m_NNJson": {
      "dLearningRate": 0.1,
      "iHiddenNodes": 6,
      "iInputNodes": 5,
      "iOutputNodes": 1,
      "mBiasHidden": {
        "iCols": 1,
        "iRows": 6,
        "vData": [
          0.6581926938688314,
          -0.18045594653157138,
          0.2312997833185828,
          -0.37974181340983304,
          -0.3539841914120915,
          -0.2057252723776971
        ]
      },
      "mBiasOutput": {
        "iCols": 1,
        "iRows": 1,
        "vData": [
          -0.7379680776390881
        ]
      },
      "mHiddenWeights": {
        "iCols": 6,
        "iRows": 1,
        "vData": [
          0.2457655568102053,
          -0.04184087649159218,
          -0.17563402203436385,
          0.6753440961943418,
          -0.6061281167027802,
          0.5638294625690481
        ]
      },
      "mInputWeights": {
        "iCols": 5,
        "iRows": 6,
        "vData": [
          0.9871822260200811,
          -0.1888180181279946,
          0.707632679219947,
          0.6772362437818538,
          -0.5019379253517258,
          -0.27182836390270704,
          -0.685842463454085,
          -0.3361003448591571,
          0.48185674611651974,
          -0.14487136448255866,
          0.967833491012299,
          0.7908871730704672,
          0.2635883663441878,
          0.7452314828943754,
          0.4242988372447889,
          -0.45463423566393013,
          0.1164891506698813,
          0.3722952970976898,
          -0.6199835200048829,
          0.9837031159398175,
          -0.564622943815424,
          -0.13821832941679124,
          -0.4700766014587847,
          -0.19260231330301825,
          -0.24295785393841363,
          0.6785790581987976,
          -0.7459639271217994,
          -0.44682149723807485,
          -0.5587633899960326,
          -0.16605121005890078
        ]
      }
    },
    "m_iHiddenCount": 6,
    "m_iInputCount": 5,
    "m_iOutputCount": 1,
    "m_iScore": -100
  },
  {
    "m_NNJson": {
      "dLearningRate": 0.1,
      "iHiddenNodes": 6,
      "iInputNodes": 5,
      "iOutputNodes": 1,
      "mBiasHidden": {
        "iCols": 1,
        "iRows": 6,
        "vData": [
          -0.8573564867091892,
          -0.22037415692617568,
          -0.9200415051728874,
          0.978148747215186,
          0.5882442701498458,
          0.737968077639088
        ]
      },
      "mBiasOutput": {
        "iCols": 1,
        "iRows": 1,
        "vData": [
          -0.3323160496841334
        ]
      },
      "mHiddenWeights": {
        "iCols": 6,
        "iRows": 1,
        "vData": [
          -0.3666188543351543,
          0.5009002960295419,
          -0.8491164891506698,
          -0.3819391460921049,
          -0.5598010193182166,
          -0.12405774101992861
        ]
      },
      "mInputWeights": {
        "iCols": 5,
        "iRows": 6,
        "vData": [
          0.3545335245826593,
          -0.1105685598315378,
          -0.05191198461867119,
          -0.5196386608478042,
          -0.33628345591601305,
          0.05740531632435064,
          -0.8069399090548417,
          0.3934751426740317,
          -0.7029938657795953,
          -0.9094210638752404,
          -0.858455153050325,
          0.8603473006378368,
          0.5884884182256538,
          0.25363933225501256,
          -0.7996154667806025,
          0.05984679708243057,
          0.8029725028229622,
          0.346720786156804,
          0.18436231574449913,
          0.9005096591082491,
          0.15762810144352546,
          0.89104892117069,
          0.011505478072450837,
          -0.8167058320871609,
          -0.4177068391979736,
          -0.901791436506241,
          0.043733024079104066,
          0.8319650868251594,
          0.2799462874233223,
          -0.5614490188299204
        ]
      }
    },
    "m_iHiddenCount": 6,
    "m_iInputCount": 5,
    "m_iOutputCount": 1,
    "m_iScore": -100
  },
  {
    "m_NNJson": {
      "dLearningRate": 0.1,
      "iHiddenNodes": 6,
      "iInputNodes": 5,
      "iOutputNodes": 1,
      "mBiasHidden": {
        "iCols": 1,
        "iRows": 6,
        "vData": [
          -0.7563402203436385,
          -0.9651478621784112,
          -0.38718832972197637,
          0.5624866481521043,
          -0.9512314218573565,
          0.4269234290597248
        ]
      },
      "mBiasOutput": {
        "iCols": 1,
        "iRows": 1,
        "vData": [
          0.2532731101413006
        ]
      },
      "mHiddenWeights": {
        "iCols": 6,
        "iRows": 1,
        "vData": [
          -0.9014252143925291,
          -0.22336497085482343,
          0.7906430249946592,
          -0.14639728995635848,
          -0.3970763267921995,
          0.7812433240760521
        ]
      },
      "mInputWeights": {
        "iCols": 5,
        "iRows": 6,
        "vData": [
          0.7836237678151798,
          0.5946531571398053,
          0.06338694418164614,
          0.8178655354472488,
          0.4735557115390485,
          0.5453962828455459,
          -0.17502365184484392,
          0.6639912106692709,
          -0.37559129612109743,
          0.7786187322611164,
          0.8065736869411297,
          0.4609820856349376,
          0.6526383251442001,
          0.5027924436170537,
          -0.9918820764793848,
          0.3309121982482375,
          -0.174413281655324,
          0.014496292001098698,
          -0.7553025910214545,
          -0.283303323465682,
          0.15158543656727796,
          -0.7219763786736656,
          -0.34482863856929225,
          -0.8951994384594256,
          0.4610431226538896,
          -0.0679647206030457,
          -0.06595049897762995,
          0.5804315317239905,
          -0.008209479049043233,
          0.7836237678151798
        ]
      }
    },
    "m_iHiddenCount": 6,
    "m_iInputCount": 5,
    "m_iOutputCount": 1,
    "m_iScore": -10
  },
  {
    "m_NNJson": {
      "dLearningRate": 0.1,
      "iHiddenNodes": 6,
      "iInputNodes": 5,
      "iOutputNodes": 1,
      "mBiasHidden": {
        "iCols": 1,
        "iRows": 6,
        "vData": [
          0.8775597399822992,
          -0.35770744956816314,
          0.7570726645710624,
          0.7515793328653828,
          -0.9445783867915891,
          -0.629810480056154
        ]
      },
      "mBiasOutput": {
        "iCols": 1,
        "iRows": 1,
        "vData": [
          -0.5202490310373241
        ]
      },
      "mHiddenWeights": {
        "iCols": 6,
        "iRows": 1,
        "vData": [
          -0.978942228461562,
          -0.024323252052369737,
          0.326578569902646,
          -0.25028229621265297,
          0.6923123874629964,
          -0.6900540177617724
        ]
      },
      "mInputWeights": {
        "iCols": 5,
        "iRows": 6,
        "vData": [
          0.47734000671407206,
          0.9408551286355173,
          0.40781884212775044,
          -0.3595995971556749,
          -0.576219977416303,
          -0.5157933286538285,
          0.5079805902279733,
          0.512314218573565,
          0.20096438489944157,
          0.2439344462416455,
          -0.8533890804773094,
          -0.7313760795922727,
          -0.3622852259895627,
          -0.35178685872981963,
          -0.706045716727195,
          -0.7658619953001495,
          0.05417035431989503,
          0.8550370799890132,
          0.12192144535660887,
          -0.04379406109805595,
          0.6172978911709952,
          -0.065523239844966,
          -0.2942289498580889,
          -0.6489150669881283,
          0.15366069521164594,
          -0.31864375743888673,
          0.8383739738151188,
          0.5096285897396771,
          -0.018097476119266376,
          -0.6324350718710898
        ]
      }
    },
    "m_iHiddenCount": 6,
    "m_iInputCount": 5,
    "m_iOutputCount": 1,
    "m_iScore": -100
  },
  {
    "m_NNJson": {
      "dLearningRate": 0.1,
      "iHiddenNodes": 6,
      "iInputNodes": 5,
      "iOutputNodes": 1,
      "mBiasHidden": {
        "iCols": 1,
        "iRows": 6,
        "vData": [
          0.4371166112247078,
          -0.576342051454207,
          0.6240119632557146,
          0.7449873348185674,
          -0.3903622547074801,
          -0.848139896847438
        ]
      },
      "mBiasOutput": {
        "iCols": 1,
        "iRows": 1,
        "vData": [
          -0.3416547135837885
        ]
      },
      "mHiddenWeights": {
        "iCols": 6,
        "iRows": 1,
        "vData": [
          0.685293130283517,
          -0.6868190557573168,
          -0.3901791436506241,
          0.15414899136326188,
          -0.7081209753715629,
          -0.6532486953337199
        ]
      },
      "mInputWeights": {
        "iCols": 5,
        "iRows": 6,
        "vData": [
          0.7892391735587634,
          0.5472273934141056,
          -0.5873897518845179,
          -0.19687490462965784,
          0.455671864986114,
          -0.32639545884579,
          -0.44944608905301064,
          -0.8455763420514542,
          0.15701773125400553,
          0.15103610339671003,
          0.8310495315408795,
          0.8039490951261941,
          -0.15042573320719022,
          -0.18936735129856253,
          -0.3400067140720847,
          0.8352000488296152,
          0.37717825861384924,
          -0.163304544206061,
          0.33701590014343696,
          -0.20798364207892084,
          0.7809381389812922,
          0.08743552964873191,
          -0.6566667683950316,
          -0.9362163151951659,
          -0.6058229316080203,
          -0.9401837214270455,
          -0.30320139164403215,
          -0.9293191320535905,
          -0.46482741782891324,
          0.06186101870784633
        ]
      }
    },
    "m_iHiddenCount": 6,
    "m_iInputCount": 5,
    "m_iOutputCount": 1,
    "m_iScore": -100
  },
  {
    "m_NNJson": {
      "dLearningRate": 0.1,
      "iHiddenNodes": 6,
      "iInputNodes": 5,
      "iOutputNodes": 1,
      "mBiasHidden": {
        "iCols": 1,
        "iRows": 6,
        "vData": [
          0.4888760032959991,
          -0.21579638050477612,
          0.5734733115634632,
          -0.934080019531846,
          -0.6492812891018402,
          -0.8189642017883847
        ]
      },
      "mBiasOutput": {
        "iCols": 1,
        "iRows": 1,
        "vData": [
          0.7208777123325296
        ]
      },
      "mHiddenWeights": {
        "iCols": 6,
        "iRows": 1,
        "vData": [
          -0.793816949980163,
          0.1573229163487655,
          -0.08780175176244387,
          -0.424420911282693,
          0.542527542954802,
          0.5470442823572497
        ]
      },
      "mInputWeights": {
        "iCols": 5,
        "iRows": 6,
        "vData": [
          -0.8865321817682424,
          -0.2977690969573046,
          0.44010742515335544,
          -0.3843195898312326,
          0.21720023194067206,
          0.13974425489059117,
          -0.14597003082369453,
          -0.7239906002990815,
          -0.7167271950437941,
          -0.46134830774864954,
          -0.34897915585802786,
          0.5485091708120975,
          -0.4576860866115299,
          0.33304849391155744,
          -0.8491775261696219,
          0.6072267830439162,
          -0.9294412060914945,
          0.4985198522904142,
          0.814447462385937,
          -0.09372234260078738,
          -0.005035554063539505,
          0.18607135227515492,
          -0.4082461012604145,
          0.3860286263618884,
          -0.8754234443189794,
          0.07919553209021268,
          -0.8983733634449294,
          -0.8169499801629688,
          0.0697347941526536,
          -0.7146519363994263
        ]
      }
    },
    "m_iHiddenCount": 6,
    "m_iInputCount": 5,
    "m_iOutputCount": 1,
    "m_iScore": -100
  },
  {
    "m_NNJson": {
      "dLearningRate": 0.1,
      "iHiddenNodes": 6,
      "iInputNodes": 5,
      "iOutputNodes": 1,
      "mBiasHidden": {
        "iCols": 1,
        "iRows": 6,
        "vData": [
          0.6461073641163366,
          -0.8222602008117923,
          -0.18240913113803525,
          0.9976195562608723,
          -0.25199133274330887,
          0.858760338145085
        ]
      },
      "mBiasOutput": {
        "iCols": 1,
        "iRows": 1,
        "vData": [
          -0.25968199713126006
        ]
      },
      "mHiddenWeights": {
        "iCols": 6,
        "iRows": 1,
        "vData": [
          0.7026886806848354,
          0.8131656849879452,
          -0.08780175176244387,
          0.4631794183172093,
          -0.1529892880031739,
          -0.15787224951933343
        ]
      },
      "mInputWeights": {
        "iCols": 5,
        "iRows": 6,
        "vData": [
          0.7542039246803187,
          0.46049378948332165,
          -0.37101351969969787,
          -0.8568071535386211,
          0.8955046235541857,
          -0.3093050935392315,
          -0.6608172856837672,
          0.7199621570482497,
          -0.6869411297952208,
          -0.814264351329081,
          0.03604235969115277,
          0.8059633167516098,
          -0.6423841059602649,
          -0.3512375255592517,
          0.34550004577776416,
          0.3174230170598469,
          0.8983733634449294,
          0.6174810022278512,
          -0.782158879360332,
          0.7129428998687704,
          -0.36893826105533,
          -0.20957060457167276,
          0.19870601519821762,
          0.4308908352916043,
          0.014923551133762647,
          -0.5329447309793389,
          0.3598437452314829,
          -0.6531266212958159,
          0.15060884426404608,
          -0.837153233436079
        ]
      }
    },
    "m_iHiddenCount": 6,
    "m_iInputCount": 5,
    "m_iOutputCount": 1,
    "m_iScore": -10
  },
  {
    "m_NNJson": {
      "dLearningRate": 0.1,
      "iHiddenNodes": 6,
      "iInputNodes": 5,
      "iOutputNodes": 1,
      "mBiasHidden": {
        "iCols": 1,
        "iRows": 6,
        "vData": [
          0.8643147068697166,
          -0.7086092715231789,
          0.8995941038239692,
          -0.6997589037751396,
          -0.25821710867641223,
          0.5283669545579395
        ]
      },
      "mBiasOutput": {
        "iCols": 1,
        "iRows": 1,
        "vData": [
          -0.2906888027588732
        ]
      },
      "mHiddenWeights": {
        "iCols": 6,
        "iRows": 1,
        "vData": [
          -0.7004913480025636,
          0.9419537949766534,
          0.40940580462050224,
          -0.6036866359447004,
          -0.4523148289437544,
          0.9163792840357676
        ]
      },
      "mInputWeights": {
        "iCols": 5,
        "iRows": 6,
        "vData": [
          0.554857020783105,
          0.4318674275948362,
          0.7441328165532395,
          0.26175725577562803,
          0.4933317056794946,
          0.0026551103244116803,
          0.1894894253364665,
          0.5032807397686696,
          0.8834803308206427,
          0.945371868037965,
          0.651051362651448,
          0.3630787072359385,
          0.23075045014801487,
          0.14304025391399877,
          -0.7188024536881619,
          -0.021515549180578075,
          0.3390301217688527,
          0.5363017670216987,
          -0.7993713187047945,
          -0.8393505661183508,
          -0.7435834833826716,
          0.5366679891354107,
          0.5079805902279733,
          0.6144901882992035,
          0.8653523361919004,
          -0.4939420758690145,
          -0.9092989898373364,
          -0.24362926114688555,
          0.6791283913693655,
          0.6157719656971954
        ]
      }
    },
    "m_iHiddenCount": 6,
    "m_iInputCount": 5,
    "m_iOutputCount": 1,
    "m_iScore": -100
  },
  {
    "m_NNJson": {
      "dLearningRate": 0.1,
      "iHiddenNodes": 6,
      "iInputNodes": 5,
      "iOutputNodes": 1,
      "mBiasHidden": {
        "iCols": 1,
        "iRows": 6,
        "vData": [
          0.10458693197424229,
          -0.3000885036774804,
          -0.9511093478194526,
          0.4394360179448835,
          -0.5732291634876552,
          -0.4268623920407727
        ]
      },
      "mBiasOutput": {
        "iCols": 1,
        "iRows": 1,
        "vData": [
          -0.9460432752464369
        ]
      },
      "mHiddenWeights": {
        "iCols": 6,
        "iRows": 1,
        "vData": [
          0.3708304086428418,
          -0.5068819238868374,
          0.794000061037019,
          -0.8707846308786279,
          -0.3136997589037751,
          -0.5026093325601977
        ]
      },
      "mInputWeights": {
        "iCols": 5,
        "iRows": 6,
        "vData": [
          0.9226660969878231,
          -0.119968260750145,
          -0.3827326273384808,
          0.3732108523819697,
          -0.18552201910458688,
          0.5268410290841394,
          -0.20804467909787283,
          -0.7424848170415357,
          -0.32535782952360603,
          -0.8080996124149297,
          -0.2958159123508408,
          -0.13510544145023962,
          0.6213873714407789,
          0.6429334391308328,
          0.6848048341319011,
          0.3012482070375684,
          -0.9591662343211158,
          0.608813745536668,
          -0.11630603961302532,
          -0.8937345500045778,
          0.34647663808099605,
          0.7529221472823266,
          -0.3989684743797113,
          0.5093234046449171,
          -0.5397808771019623,
          0.477706228827784,
          0.1225318155461288,
          -0.8260444959868161,
          0.8301339762565996,
          0.12436292611468858
        ]
      }
    },
    "m_iHiddenCount": 6,
    "m_iInputCount": 5,
    "m_iOutputCount": 1,
    "m_iScore": -100
  },
  {
    "m_NNJson": {
      "dLearningRate": 0.1,
      "iHiddenNodes": 6,
      "iInputNodes": 5,
      "iOutputNodes": 1,
      "mBiasHidden": {
        "iCols": 1,
        "iRows": 6,
        "vData": [
          0.6637470625934629,
          -0.49961851863155005,
          -0.34806360057374797,
          0.30167546617023233,
          0.7726981414227729,
          -0.10098574785607473
        ]
      },
      "mBiasOutput": {
        "iCols": 1,
        "iRows": 1,
        "vData": [
          0.5022431104464857
        ]
      },
      "mHiddenWeights": {
        "iCols": 6,
        "iRows": 1,
        "vData": [
          -0.8337961973937194,
          0.7877132480849636,
          -0.8423413800469985,
          0.4257026886806847,
          0.24454481643116543,
          0.6490371410260323
        ]
      },
      "mInputWeights": {
        "iCols": 5,
        "iRows": 6,
        "vData": [
          0.1164891506698813,
          -0.379863887447737,
          0.4175847651600695,
          0.9543443098239082,
          0.9934080019531846,
          -0.381206701864681,
          -0.5566881313516647,
          0.0815759758293404,
          -0.8104190191351055,
          -0.2780541398358104,
          0.7810602130191961,
          -0.04129154332102425,
          -0.60887478255562,
          -0.8932462538529619,
          0.19327372051149028,
          0.4164250617999816,
          -0.24851222266304518,
          -0.6235236671040987,
          -0.32004760887478256,
          0.02597125156407354,
          -0.1572618793298135,
          0.956053346354564,
          -0.45866267891476176,
          0.16110721152378926,
          -0.27933591723380236,
          0.14810632648701438,
          0.46031067842646567,
          -0.9990234076967681,
          -0.8351390118106632,
          -0.3383587145603809
        ]
      }
    },
    "m_iHiddenCount": 6,
    "m_iInputCount": 5,
    "m_iOutputCount": 1,
    "m_iScore": -100
  },
  {
    "m_NNJson": {
      "dLearningRate": 0.1,
      "iHiddenNodes": 6,
      "iInputNodes": 5,
      "iOutputNodes": 1,
      "mBiasHidden": {
        "iCols": 1,
        "iRows": 6,
        "vData": [
          -0.11337626270332957,
          0.3332926419873654,
          -0.03396710104678491,
          0.9688100833155309,
          0.7997375408185063,
          0.163365581225013
        ]
      },
      "mBiasOutput": {
        "iCols": 1,
        "iRows": 1,
        "vData": [
          0.380901516769921
        ]
      },
      "mHiddenWeights": {
        "iCols": 6,
        "iRows": 1,
        "vData": [
          0.7706839197973572,
          0.7372966704306161,
          0.5955687124240852,
          0.5268410290841394,
          0.8737754448072756,
          0.43321024201178004
        ]
      },
      "mInputWeights": {
        "iCols": 5,
        "iRows": 6,
        "vData": [
          0.9443342387157811,
          -0.7321085238196967,
          -0.8682210760826441,
          0.683523056733909,
          0.6559953611865597,
          -0.31669057283242286,
          0.28556169316690583,
          0.8701742606891079,
          0.6095461897640919,
          -0.08896145512253184,
          0.45036164433729065,
          0.49192785424359875,
          -0.5848872341074862,
          0.4224677266762291,
          0.3069246498001037,
          0.22251045258949542,
          -0.09543137913144317,
          -0.8352610858485672,
          -0.3135776848658711,
          0.5498519852290413,
          -0.33054597613452563,
          -0.8039490951261941,
          0.9154637287514877,
          0.9914548173467208,
          -0.3340250862147893,
          0.12137211218604094,
          0.7584154789880062,
          -0.48356578264717553,
          0.19870601519821762,
          -0.60887478255562
        ]
      }
    },
    "m_iHiddenCount": 6,
    "m_iInputCount": 5,
    "m_iOutputCount": 1,
    "m_iScore": -10
  },
  {
    "m_NNJson": {
      "dLearningRate": 0.1,
      "iHiddenNodes": 6,
      "iInputNodes": 5,
      "iOutputNodes": 1,
      "mBiasHidden": {
        "iCols": 1,
        "iRows": 6,
        "vData": [
          0.47318948942533656,
          -0.5959349345377971,
          0.47428815576647243,
          0.6467177343058566,
          0.06534012878810991,
          0.7463911862544634
        ]
      },
      "mBiasOutput": {
        "iCols": 1,
        "iRows": 1,
        "vData": [
          0.6570329905087435
        ]
      },
      "mHiddenWeights": {
        "iCols": 6,
        "iRows": 1,
        "vData": [
          0.3775444807275612,
          -0.08578753013702811,
          0.5727408673360392,
          0.5678579058198798,
          0.3416547135837886,
          -0.26987517929624316
        ]
      },
      "mInputWeights": {
        "iCols": 5,
        "iRows": 6,
        "vData": [
          -0.8311716055787836,
          0.38456373790704057,
          -0.705374309518723,
          0.005340739158299579,
          -0.7864314706869716,
          -0.42149113437299723,
          -0.5174413281655323,
          0.8707846308786278,
          0.11496322519608149,
          -0.9740592669454023,
          0.7517624439222388,
          0.02938932462538535,
          0.3384197515793328,
          -0.5353862117374187,
          -0.5121921445356609,
          -0.4719077120273446,
          -0.86901455732902,
          -0.009918515579699139,
          0.8931852168340098,
          -0.7075106051820429,
          -0.880672627948851,
          0.5124973296304209,
          0.8675496688741722,
          -0.26657918027283545,
          -0.2602923673207801,
          -0.28373058259834594,
          -0.6223639637440108,
          -0.11093478194524975,
          0.062288277840510275,
          0.8372753074739829
        ]
      }
    },
    "m_iHiddenCount": 6,
    "m_iInputCount": 5,
    "m_iOutputCount": 1,
    "m_iScore": -10
  },
  {
    "m_NNJson": {
      "dLearningRate": 0.1,
      "iHiddenNodes": 6,
      "iInputNodes": 5,
      "iOutputNodes": 1,
      "mBiasHidden": {
        "iCols": 1,
        "iRows": 6,
        "vData": [
          0.4544065806749407,
          -0.949850534621664,
          0.9354799811669318,
          -0.49717703787347023,
          0.42004443125371654,
          0.9211759769673464
        ]
      },
      "mBiasOutput": {
        "iCols": 1,
        "iRows": 1,
        "vData": [
          2.0431235941592636
        ]
      },
      "mHiddenWeights": {
        "iCols": 6,
        "iRows": 1,
        "vData": [
          -0.24673859927211234,
          0.610420628226646,
          -0.3675589583587368,
          0.16932363718884016,
          -0.9427399345577289,
          3.6831875877482076
        ]
      },
      "mInputWeights": {
        "iCols": 5,
        "iRows": 6,
        "vData": [
          -0.9429574019287348,
          0.10572027797893395,
          -0.9002960930134289,
          -0.4743115654840205,
          -0.022644086504269932,
          0.46376100429380207,
          0.5091437576145467,
          -0.6501287550064442,
          -0.2702777145309781,
          0.03483314657058123,
          -0.5289346029056109,
          -1.1459105216227112,
          -0.43957390063901564,
          -0.34710683420396793,
          0.0945164715453824,
          0.8052308725241859,
          0.5884273812067018,
          -0.9503769035920285,
          0.5253761406292916,
          -0.3561204870754112,
          -0.4959610743177528,
          -1.0281558242236126,
          -0.20627526656095152,
          -0.49483282852526334,
          -0.631654343641267,
          0.24315905356079645,
          0.5716101259648997,
          -0.005207393666053688,
          0.518924132106824,
          0.33578851091687495
        ]
      }
    },
    "m_iHiddenCount": 6,
    "m_iInputCount": 5,
    "m_iOutputCount": 1,
    "m_iScore": -10
  },
  {
    "m_NNJson": {
      "dLearningRate": 0.1,
      "iHiddenNodes": 6,
      "iInputNodes": 5,
      "iOutputNodes": 1,
      "mBiasHidden": {
        "iCols": 1,
        "iRows": 6,
        "vData": [
          0.3273720511490219,
          -0.23679311502426226,
          0.3640552995391706,
          -0.12125003814813684,
          0.2568742942594684,
          0.7333292641987366
        ]
      },
      "mBiasOutput": {
        "iCols": 1,
        "iRows": 1,
        "vData": [
          0.33793145542771685
        ]
      },
      "mHiddenWeights": {
        "iCols": 6,
        "iRows": 1,
        "vData": [
          -0.33109530930509357,
          -0.7042146061586352,
          -0.934751426740318,
          -0.03451643421735284,
          -0.8384350108340709,
          -0.684133426923429
        ]
      },
      "mInputWeights": {
        "iCols": 5,
        "iRows": 6,
        "vData": [
          0.15579699087496568,
          0.7222205267494735,
          -0.7247230445265054,
          0.4167302468947416,
          0.9172338023010955,
          -0.33976256599627674,
          -0.35776848658711513,
          -0.7701956236457411,
          0.36521500289925846,
          0.7676931058687093,
          0.6255378887295144,
          -0.6173589281899472,
          0.5400860621967223,
          0.5187231055635242,
          0.018341624195074235,
          0.8482009338663901,
          0.46562089907528925,
          0.014557329020050691,
          0.9987792596209601,
          -0.3519699697866756,
          0.40946684163945424,
          0.4532914212469863,
          0.9694204535050508,
          -0.41721854304635764,
          -0.05624561296426278,
          -0.8025452436902982,
          0.6050294503616442,
          -0.6597186193426313,
          -0.13064973906674393,
          0.2522965178380687
        ]
      }
    },
    "m_iHiddenCount": 6,
    "m_iInputCount": 5,
    "m_iOutputCount": 1,
    "m_iScore": -100
  },
  {
    "m_NNJson": {
      "dLearningRate": 0.1,
      "iHiddenNodes": 6,
      "iInputNodes": 5,
      "iOutputNodes": 1,
      "mBiasHidden": {
        "iCols": 1,
        "iRows": 6,
        "vData": [
          0.5375835444196906,
          0.2364268929105502,
          0.49705496383556635,
          -0.7712332529679251,
          0.73772392956328,
          -0.6365855891598254
        ]
      },
      "mBiasOutput": {
        "iCols": 1,
        "iRows": 1,
        "vData": [
          0.23483993041779838
        ]
      },
      "mHiddenWeights": {
        "iCols": 6,
        "iRows": 1,
        "vData": [
          -0.4073305459761345,
          0.9042329172643209,
          -0.902096621601001,
          -0.6971343119602038,
          -0.1827753532517472,
          -0.5755485702078311
        ]
      },
      "mInputWeights": {
        "iCols": 5,
        "iRows": 6,
        "vData": [
          -0.17624439222388377,
          -0.7372356334116641,
          -0.13138218329416795,
          0.445600756859035,
          -0.9581896420178838,
          0.739677114169744,
          0.7832575457014679,
          -0.5485702078310495,
          -0.5799432355723746,
          -0.5159764397106845,
          0.7133701590014343,
          -0.23142185735648668,
          0.3528855250709555,
          0.4115421002838222,
          0.6165654469435713,
          0.4122745445112461,
          0.13168736838892792,
          -0.3630787072359386,
          0.18057802056947536,
          -0.7775200659199805,
          -0.4735557115390484,
          0.9804681539353617,
          0.5550401318399609,
          -0.08090456862086859,
          0.8706625568407238,
          -0.03793450727866454,
          0.6185186315500351,
          0.5513779107028414,
          0.9630115665150913,
          0.346781823175756
        ]
      }
    },
    "m_iHiddenCount": 6,
    "m_iInputCount": 5,
    "m_iOutputCount": 1,
    "m_iScore": -100
  },
  {
    "m_NNJson": {
      "dLearningRate": 0.1,
      "iHiddenNodes": 6,
      "iInputNodes": 5,
      "iOutputNodes": 1,
      "mBiasHidden": {
        "iCols": 1,
        "iRows": 6,
        "vData": [
          -0.7777031769768364,
          -0.4385814996795556,
          -0.6695455793939025,
          0.4641560106204412,
          0.34128849147007667,
          0.0738853114413891
        ]
      },
      "mBiasOutput": {
        "iCols": 1,
        "iRows": 1,
        "vData": [
          0.18900112918485057
        ]
      },
      "mHiddenWeights": {
        "iCols": 6,
        "iRows": 1,
        "vData": [
          0.44267097994933935,
          0.3326212347788935,
          -0.5123142185735649,
          -0.7228919339579455,
          -0.04354991302224798,
          -0.6587420270393993
        ]
      },
      "mInputWeights": {
        "iCols": 5,
        "iRows": 6,
        "vData": [
          -0.24369029816583754,
          0.6395153660695212,
          -0.9164403210547197,
          -0.8389843440046388,
          -0.3716849269081698,
          0.34134952848902866,
          0.21628467665639217,
          0.47428815576647243,
          -0.7228308969389935,
          -0.5392315439313944,
          0.16342661824396498,
          0.20432142094180117,
          0.9078341013824884,
          -0.4985198522904142,
          -0.9400616473891416,
          -0.9901730399487289,
          0.35325174718466745,
          0.5356303598132268,
          0.9750968962675863,
          0.8248847926267282,
          0.38731040375988046,
          -0.4839320047608875,
          0.22727134006775107,
          0.16379284035767694,
          0.057039094210638686,
          0.5292825098422194,
          -0.12564470351268042,
          0.9006927701651051,
          -0.4030579546494949,
          0.30246894741660824
        ]
      }
    },
    "m_iHiddenCount": 6,
    "m_iInputCount": 5,
    "m_iOutputCount": 1,
    "m_iScore": -100
  },
  {
    "m_NNJson": {
      "dLearningRate": 0.1,
      "iHiddenNodes": 6,
      "iInputNodes": 5,
      "iOutputNodes": 1,
      "mBiasHidden": {
        "iCols": 1,
        "iRows": 6,
        "vData": [
          0.8949877485725081,
          -0.5412457655568101,
          -0.8353755578305602,
          -0.228975780817873,
          0.6352054530650909,
          -0.5849744466992056
        ]
      },
      "mBiasOutput": {
        "iCols": 1,
        "iRows": 1,
        "vData": [
          3.4529061092207627
        ]
      },
      "mHiddenWeights": {
        "iCols": 6,
        "iRows": 1,
        "vData": [
          -4.391256375556758,
          3.5561197082685787,
          3.7759569931489736,
          0.08062488071671926,
          -6.810200557817793,
          4.645491635622901
        ]
      },
      "mInputWeights": {
        "iCols": 5,
        "iRows": 6,
        "vData": [
          38.23015258612964,
          8.596662874917461,
          18.40513674502307,
          -2.5306534786644104,
          9.856441478752608,
          0.7310708944975128,
          0.2125003814813684,
          -0.20523697622608117,
          -0.02871791741691332,
          0.6627704702902311,
          -2.282433465175525,
          -2.297942153703286,
          -0.3634900672480002,
          -2.9043074424487467,
          -0.2459151158569265,
          -0.2052680549540923,
          -0.20846914831035387,
          -0.40804482933816966,
          -0.6213898592218592,
          -0.5122717930295062,
          -0.495026254140494,
          0.2694890383733929,
          1.0302530076986924,
          -0.41537407287895084,
          -0.40147592846345226,
          -0.9224471018941105,
          -0.9969982095505917,
          -0.8784780045435701,
          -1.1397014402234749,
          -0.34250369465777325
        ]
      }
    },
    "m_iHiddenCount": 6,
    "m_iInputCount": 5,
    "m_iOutputCount": 1,
    "m_iScore": -100
  },
  {
    "m_NNJson": {
      "dLearningRate": 0.1,
      "iHiddenNodes": 6,
      "iInputNodes": 5,
      "iOutputNodes": 1,
      "mBiasHidden": {
        "iCols": 1,
        "iRows": 6,
        "vData": [
          0.5071871089815974,
          0.6340830713827936,
          0.09469893490401926,
          -0.06588946195867795,
          -0.4830774864955596,
          -0.8290963469344157
        ]
      },
      "mBiasOutput": {
        "iCols": 1,
        "iRows": 1,
        "vData": [
          0.8832361827448347
        ]
      },
      "mHiddenWeights": {
        "iCols": 6,
        "iRows": 1,
        "vData": [
          0.15494247260963778,
          -0.8173162022766808,
          0.6624042481765191,
          -0.477950376903592,
          -0.9149754325998718,
          0.8557695242164374
        ]
      },
      "mInputWeights": {
        "iCols": 5,
        "iRows": 6,
        "vData": [
          0.5588854640339367,
          0.5606555375835445,
          0.7540818506424147,
          0.5882442701498458,
          -0.18997772148808256,
          -0.9316995757927182,
          0.23252052369762266,
          -0.20725119785149693,
          -0.6568498794518876,
          0.8295236060670796,
          0.46476638080996113,
          0.7558519241920225,
          0.8536332285531174,
          0.9623401593066194,
          0.4839320047608875,
          0.21481978820154413,
          -0.38126773888363297,
          0.16678365428632458,
          -0.4065370647297586,
          -0.9506820886867885,
          -0.3707693716238899,
          -0.41874446852015745,
          0.04702902310251167,
          0.49186681722464676,
          0.2083498641926329,
          -0.825373088778344,
          -0.8772545548875393,
          0.15414899136326188,
          -0.8180486465041048,
          0.4855800042725913
        ]
      }
    },
    "m_iHiddenCount": 6,
    "m_iInputCount": 5,
    "m_iOutputCount": 1,
    "m_iScore": -10
  },
  {
    "m_NNJson": {
      "dLearningRate": 0.1,
      "iHiddenNodes": 6,
      "iInputNodes": 5,
      "iOutputNodes": 1,
      "mBiasHidden": {
        "iCols": 1,
        "iRows": 6,
        "vData": [
          0.08011108737449257,
          0.5368511001922667,
          -0.8169499801629688,
          -0.7045808282723471,
          -0.4965056306649983,
          0.1488387707144383
        ]
      },
      "mBiasOutput": {
        "iCols": 1,
        "iRows": 1,
        "vData": [
          0.6887722403637806
        ]
      },
      "mHiddenWeights": {
        "iCols": 6,
        "iRows": 1,
        "vData": [
          -0.026520584734641584,
          -0.608996856593524,
          0.7148350474562821,
          -0.6743675038911099,
          0.8118839075899533,
          0.2008423108615376
        ]
      },
      "mInputWeights": {
        "iCols": 5,
        "iRows": 6,
        "vData": [
          -0.9216284676656392,
          -0.5664540543839839,
          -0.2637714774010438,
          -0.84759056367687,
          -0.35489974669637137,
          -0.19846186712240976,
          -0.14676351207007055,
          0.8607135227515488,
          -0.825678273873104,
          0.7558519241920225,
          -0.14700766014587852,
          -0.19095431379131445,
          0.881038850062563,
          -0.20310068056276132,
          0.7971739860225227,
          -0.8780480361339152,
          -0.5370952482680746,
          -0.38236640522476883,
          -0.7511520737327189,
          0.18527787102877902,
          0.5374004333628346,
          -0.9572740867336039,
          0.7037263100070192,
          -0.3970152897732475,
          0.01956236457411431,
          0.14432203131199062,
          0.4932096316415906,
          -0.26297799615466777,
          0.7543259987182227,
          -0.40433973204748686
        ]
      }
    },
    "m_iHiddenCount": 6,
    "m_iInputCount": 5,
    "m_iOutputCount": 1,
    "m_iScore": -10
  },
  {
    "m_NNJson": {
      "dLearningRate": 0.1,
      "iHiddenNodes": 6,
      "iInputNodes": 5,
      "iOutputNodes": 1,
      "mBiasHidden": {
        "iCols": 1,
        "iRows": 6,
        "vData": [
          -0.21567430646687213,
          0.08493301187170021,
          0.4873500778221991,
          0.7453535569322793,
          0.4416333506271555,
          0.34299752800073247
        ]
      },
      "mBiasOutput": {
        "iCols": 1,
        "iRows": 1,
        "vData": [
          -0.5358745078890347
        ]
      },
      "mHiddenWeights": {
        "iCols": 6,
        "iRows": 1,
        "vData": [
          -0.05459761345255898,
          0.1769157994323558,
          0.2217780083620715,
          0.30155339213232835,
          -0.8784142582476272,
          -0.6232795190282907
        ]
      },
      "mInputWeights": {
        "iCols": 5,
        "iRows": 6,
        "vData": [
          -0.21103549302652058,
          0.8857997375408184,
          -0.26993621631519515,
          -0.18839075899533064,
          -0.33213293862727744,
          0.9638050477614672,
          -0.019013031403546266,
          0.717459639271218,
          0.6348155156102175,
          -0.9711905270546587,
          0.8294015320291757,
          -0.782586138492996,
          -0.5276345103305154,
          -0.9139988402966399,
          0.2024292733542894,
          0.7026886806848354,
          -0.5117038483840449,
          -0.23258156071657465,
          -0.4632404553361614,
          -0.13547166356395157,
          0.6059450056459244,
          0.3121127964110233,
          -0.9109469893490402,
          -0.9880977813043611,
          -0.33896908474990084,
          -0.07553331095309301,
          -0.8897671437726982,
          0.7993102816858424,
          -0.5313577684865871,
          0.8245185705130162
        ]
      }
    },
    "m_iHiddenCount": 6,
    "m_iInputCount": 5,
    "m_iOutputCount": 1,
    "m_iScore": -100
  },
  {
    "m_NNJson": {
      "dLearningRate": 0.1,
      "iHiddenNodes": 6,
      "iInputNodes": 5,
      "iOutputNodes": 1,
      "mBiasHidden": {
        "iCols": 1,
        "iRows": 6,
        "vData": [
          0.7175175147721091,
          -0.3042675455737815,
          -0.7573580683867519,
          0.37346062309005945,
          0.7354991510887806,
          -0.3098669571172736
        ]
      },
      "mBiasOutput": {
        "iCols": 1,
        "iRows": 1,
        "vData": [
          2.4787087448612755
        ]
      },
      "mHiddenWeights": {
        "iCols": 6,
        "iRows": 1,
        "vData": [
          1.7487827827081042,
          0.8341133183886469,
          1.5880211424791673,
          1.0861054153611078,
          0.6052139506935516,
          1.1696482650710054
        ]
      },
      "mInputWeights": {
        "iCols": 5,
        "iRows": 6,
        "vData": [
          0.7071539005761607,
          1.9561341328116884,
          0.767896935664273,
          0.6108476828233143,
          -0.049929172124064475,
          0.08773416922672804,
          -0.6296316895226403,
          -0.4022073206898248,
          1.0783429765249943,
          0.24964121683329799,
          0.3939278283597974,
          0.7301816991809342,
          -0.7550842372629325,
          -0.36308716143583825,
          0.00012880614102246142,
          -20.20677721214807,
          0.3442277766948045,
          0.6755754161123396,
          -0.5088033209406024,
          27.871374585570525,
          0.8976597042807992,
          -0.6960435387718757,
          -0.45247734580098076,
          -0.3072540619218926,
          -0.3119690522936603,
          -0.6613384097366007,
          -0.17090148763346982,
          0.6538754127767101,
          -0.6983001142474597,
          0.5340736951439459
        ]
      }
    },
    "m_iHiddenCount": 6,
    "m_iInputCount": 5,
    "m_iOutputCount": 1,
    "m_iScore": -10
  },
  {
    "m_NNJson": {
      "dLearningRate": 0.1,
      "iHiddenNodes": 6,
      "iInputNodes": 5,
      "iOutputNodes": 1,
      "mBiasHidden": {
        "iCols": 1,
        "iRows": 6,
        "vData": [
          -0.5968504898220771,
          -0.2654194769127476,
          0.314371166112247,
          0.05136265144810337,
          0.816461684011353,
          0.3774224066896572
        ]
      },
      "mBiasOutput": {
        "iCols": 1,
        "iRows": 1,
        "vData": [
          -0.22666096987823114
        ]
      },
      "mHiddenWeights": {
        "iCols": 6,
        "iRows": 1,
        "vData": [
          0.8571733756523332,
          0.7766045106357005,
          0.8851893673512985,
          -0.47587511825922424,
          0.01663258766441844,
          0.3995788445692312
        ]
      },
      "mInputWeights": {
        "iCols": 5,
        "iRows": 6,
        "vData": [
          -0.9715567491683706,
          0.38908047730948825,
          -0.9941404461806085,
          0.2731711783196509,
          0.47654652546769616,
          0.7757499923703726,
          -0.6239509262367626,
          -0.5955076754051332,
          -0.13925595873897523,
          -0.22336497085482343,
          0.4478591265602587,
          -0.6398205511642812,
          0.2974028748435926,
          0.1064180425428023,
          0.8871425519577625,
          0.7135532700582903,
          -0.6472060304574725,
          0.207556382946257,
          0.9415265358439895,
          0.9963377788628804,
          0.6080813013092441,
          -0.19333475753044216,
          -0.977782525101474,
          -0.7977233191930906,
          -0.6005127109591968,
          0.9426862392040773,
          -0.13132114627521596,
          -0.4559770500808741,
          0.7972960600604266,
          0.28086184270760217
        ]
      }
    },
    "m_iHiddenCount": 6,
    "m_iInputCount": 5,
    "m_iOutputCount": 1,
    "m_iScore": -100
  },
  {
    "m_NNJson": {
      "dLearningRate": 0.1,
      "iHiddenNodes": 6,
      "iInputNodes": 5,
      "iOutputNodes": 1,
      "mBiasHidden": {
        "iCols": 1,
        "iRows": 6,
        "vData": [
          0.024506363109225715,
          0.18674275948362684,
          -0.282448805200354,
          -0.5612659077730644,
          -0.7645191808832057,
          0.25980407116916404
        ]
      },
      "mBiasOutput": {
        "iCols": 1,
        "iRows": 1,
        "vData": [
          -0.9444563127536851
        ]
      },
      "mHiddenWeights": {
        "iCols": 6,
        "iRows": 1,
        "vData": [
          0.60917996765038,
          0.6161381878109073,
          -0.32956938383129364,
          0.48435926389355144,
          -0.49436933500167857,
          0.8718832972197639
        ]
      },
      "mInputWeights": {
        "iCols": 5,
        "iRows": 6,
        "vData": [
          -0.5935544907986694,
          -0.1283913693655202,
          0.9008148442030091,
          -0.0161442915128025,
          0.8899502548295541,
          0.7051301614429151,
          -0.3376262703329569,
          0.5730460524307992,
          0.5200048829615163,
          -0.4364452040162359,
          0.01681569872127442,
          0.1929685354167303,
          -0.8071840571306498,
          0.20096438489944157,
          0.3752250740073855,
          -0.40855128635517446,
          -0.27921384319589826,
          0.013214514603106853,
          0.05050813318277525,
          -0.673024689474166,
          -0.06283761101107821,
          -0.025605029450361694,
          -0.3002716147343364,
          -0.30906094546342355,
          -0.8204901272621845,
          0.435529648731956,
          0.17709891048921178,
          -0.6006958220160528,
          0.4653767509994813,
          -0.1504867702261422
        ]
      }
    },
    "m_iHiddenCount": 6,
    "m_iInputCount": 5,
    "m_iOutputCount": 1,
    "m_iScore": -10
  },
  {
    "m_NNJson": {
      "dLearningRate": 0.1,
      "iHiddenNodes": 6,
      "iInputNodes": 5,
      "iOutputNodes": 1,
      "mBiasHidden": {
        "iCols": 1,
        "iRows": 6,
        "vData": [
          -0.9412213507492294,
          -0.43259987182226023,
          -0.7098300119022187,
          -0.9180883205664235,
          -0.2918485061189612,
          0.17996765037995544
        ]
      },
      "mBiasOutput": {
        "iCols": 1,
        "iRows": 1,
        "vData": [
          -0.3504440443128758
        ]
      },
      "mHiddenWeights": {
        "iCols": 6,
        "iRows": 1,
        "vData": [
          -0.29886776329844056,
          0.4098941007721182,
          0.6591082491531113,
          0.6709494308297983,
          -0.30045472579119237,
          0.39323099459822375
        ]
      },
      "mInputWeights": {
        "iCols": 5,
        "iRows": 6,
        "vData": [
          0.7254554887539293,
          -0.4447462385937071,
          0.5156712546159246,
          -0.618640705587939,
          0.25363933225501256,
          0.09884945219275498,
          -0.43333231604968414,
          -0.01663258766441844,
          -0.2202520828882717,
          -0.26908169804986726,
          -0.5821405682546464,
          0.051057466353343406,
          -0.8768272957548753,
          -0.16965239417706834,
          0.4217352824488052,
          0.05887020477919869,
          -0.7358928189947203,
          -0.7534714804528947,
          -0.3401898251289407,
          0.8727988525040438,
          0.27353740043336283,
          0.759941404461806,
          0.8117618335520493,
          0.3921323282570879,
          0.6376232184820094,
          -0.6420178838465529,
          0.5755485702078311,
          0.5395367290261543,
          -0.4607989745780816,
          -0.35850093081453904
        ]
      }
    },
    "m_iHiddenCount": 6,
    "m_iInputCount": 5,
    "m_iOutputCount": 1,
    "m_iScore": -100
  },
  {
    "m_NNJson": {
      "dLearningRate": 0.1,
      "iHiddenNodes": 6,
      "iInputNodes": 5,
      "iOutputNodes": 1,
      "mBiasHidden": {
        "iCols": 1,
        "iRows": 6,
        "vData": [
          -0.7250892666402173,
          -0.07071138645588548,
          0.12369151890621666,
          0.9731437116611226,
          -0.5886104922635578,
          0.28434095278786575
        ]
      },
      "mBiasOutput": {
        "iCols": 1,
        "iRows": 1,
        "vData": [
          0.6597186193426312
        ]
      },
      "mHiddenWeights": {
        "iCols": 6,
        "iRows": 1,
        "vData": [
          0.86870937223426,
          0.41611987670522166,
          0.13449507126071958,
          0.7008575701162756,
          0.4261909848323009,
          0.21073030793176062
        ]
      },
      "mInputWeights": {
        "iCols": 5,
        "iRows": 6,
        "vData": [
          -0.22409741508224734,
          -0.7799615466780603,
          0.1318094424268319,
          0.522446363719596,
          0.3979918820764794,
          -0.6453138828699606,
          0.5576647236548966,
          0.2594378490554521,
          -0.36851100192266606,
          -0.1445051423688467,
          -0.15463728751487782,
          -0.15744499038666948,
          -0.9060640278328806,
          -0.8201239051484726,
          -0.30637531662953577,
          -0.03817865535447251,
          0.3572801904354992,
          0.6873683889278848,
          0.7990050965910824,
          -0.7955259865108188,
          0.6289559617908262,
          0.8461256752220221,
          0.4836878566850795,
          0.4210638752403333,
          -0.09463789788506727,
          -0.9769280068361461,
          -0.4219794305246132,
          -0.6712546159245583,
          -0.5889156773583178,
          -0.5827509384441664
        ]
      }
    },
    "m_iHiddenCount": 6,
    "m_iInputCount": 5,
    "m_iOutputCount": 1,
    "m_iScore": -10
  },
  {
    "m_NNJson": {
      "dLearningRate": 0.1,
      "iHiddenNodes": 6,
      "iInputNodes": 5,
      "iOutputNodes": 1,
      "mBiasHidden": {
        "iCols": 1,
        "iRows": 6,
        "vData": [
          0.6506241035187841,
          0.20883816034424885,
          0.4410840174565873,
          0.4250312814722128,
          -0.7728202154606769,
          -0.8289132358775597
        ]
      },
      "mBiasOutput": {
        "iCols": 1,
        "iRows": 1,
        "vData": [
          -0.5491805780205694
        ]
      },
      "mHiddenWeights": {
        "iCols": 6,
        "iRows": 1,
        "vData": [
          0.2949003570665609,
          -0.5016327402569658,
          -0.467635120700705,
          -0.609057893612476,
          0.25272377697073267,
          0.39677114169743954
        ]
      },
      "mInputWeights": {
        "iCols": 5,
        "iRows": 6,
        "vData": [
          0.8782311471907711,
          0.20737327188940102,
          -0.7897274697103793,
          -0.6028321176793725,
          -0.2516251106295968,
          -0.5376445814386426,
          0.5086519974364452,
          0.3314615314188054,
          0.39921262245551925,
          -0.6754661702322459,
          0.9510483108005006,
          0.49992370372631,
          0.6612445448164312,
          0.47508163701284833,
          0.9752189703054903,
          0.14493240150151077,
          0.13992736594744715,
          0.09836115604113904,
          0.024933622241889664,
          0.9440900906399732,
          0.7766045106357005,
          0.44962920010986673,
          0.09720145268105096,
          -0.3817560350352489,
          -0.727652821436201,
          -0.16721091341898864,
          0.0587481307412947,
          -0.7677541428876613,
          0.4380932035279397,
          0.8007751701406902
        ]
      }
    },
    "m_iHiddenCount": 6,
    "m_iInputCount": 5,
    "m_iOutputCount": 1,
    "m_iScore": -100
  },
  {
    "m_NNJson": {
      "dLearningRate": 0.1,
      "iHiddenNodes": 6,
      "iInputNodes": 5,
      "iOutputNodes": 1,
      "mBiasHidden": {
        "iCols": 1,
        "iRows": 6,
        "vData": [
          -0.1802157761833344,
          -0.5286306867501347,
          0.37020558125265546,
          0.4694610896243656,
          -0.34662337237556745,
          -0.9228289530193967
        ]
      },
      "mBiasOutput": {
        "iCols": 1,
        "iRows": 1,
        "vData": [
          2.768038513813823
        ]
      },
      "mHiddenWeights": {
        "iCols": 6,
        "iRows": 1,
        "vData": [
          1.3262838440314149,
          -0.34633264476860914,
          1.2669997276197973,
          2.380148953195839,
          -0.451755646331383,
          -0.7616300437570708
        ]
      },
      "mInputWeights": {
        "iCols": 5,
        "iRows": 6,
        "vData": [
          2.1138814036666096,
          -0.26951359825064947,
          0.9409446640951162,
          -0.4438917203283792,
          -1.9115091932122148,
          -0.1900363025304799,
          -0.9807589686727469,
          -0.714452697429731,
          -1.007437583448907,
          -0.6181688806337116,
          0.61197366087671,
          0.07215176706263368,
          -0.7723285439777237,
          -0.012512240192460425,
          0.25958218383009474,
          0.006957084403655143,
          0.7833751940736225,
          0.6289279757712072,
          0.6247593546412609,
          0.26986435408486437,
          -1.098510452153364,
          -0.6327372940695044,
          0.027737348559351033,
          -0.4081436976582461,
          -0.24216416817477932,
          0.11528851067262522,
          -1.1551539569714577,
          -0.3883177463843094,
          -0.27397254156645384,
          -0.04126488500621062
        ]
      }
    },
    "m_iHiddenCount": 6,
    "m_iInputCount": 5,
    "m_iOutputCount": 1,
    "m_iScore": -10
  },
  {
    "m_NNJson": {
      "dLearningRate": 0.1,
      "iHiddenNodes": 6,
      "iInputNodes": 5,
      "iOutputNodes": 1,
      "mBiasHidden": {
        "iCols": 1,
        "iRows": 6,
        "vData": [
          0.6714987640003662,
          0.1267433698538163,
          -0.5999023407696769,
          -0.5531479842524492,
          0.35325174718466745,
          -0.4483474227118748
        ]
      },
      "mBiasOutput": {
        "iCols": 1,
        "iRows": 1,
        "vData": [
          0.031098361156041143
        ]
      },
      "mHiddenWeights": {
        "iCols": 6,
        "iRows": 1,
        "vData": [
          -0.3002105777153844,
          -0.7009186071352276,
          0.2847682119205297,
          0.06613361003448581,
          -0.7592699972533341,
          0.9603869747001557
        ]
      },
      "mInputWeights": {
        "iCols": 5,
        "iRows": 6,
        "vData": [
          -0.17386394848475606,
          -0.8728598895229958,
          0.22049623096407966,
          -0.12381359294412064,
          -0.6722312082277901,
          -0.9600817896053957,
          0.7331461531418806,
          -0.9261452070680868,
          -0.9367656483657338,
          -0.7573778496658223,
          -0.28623310037537764,
          -0.08389538254951623,
          -0.4683675649281289,
          -0.1904049806207465,
          -0.7741630298776208,
          0.35422833948789934,
          -0.5460676900540178,
          -0.14822840052491837,
          -0.8868373668630024,
          0.32670064394055,
          -0.39414654988250375,
          0.27005829035309925,
          -0.009674367503891057,
          -0.9624011963255714,
          0.23154393139439078,
          -0.23758659627063816,
          0.47141941587572855,
          -0.4796594134342479,
          0.6027710806604205,
          0.39738151188695947
        ]
      }
    },
    "m_iHiddenCount": 6,
    "m_iInputCount": 5,
    "m_iOutputCount": 1,
    "m_iScore": -10
  },
  {
    "m_NNJson": {
      "dLearningRate": 0.1,
      "iHiddenNodes": 6,
      "iInputNodes": 5,
      "iOutputNodes": 1,
      "mBiasHidden": {
        "iCols": 1,
        "iRows": 6,
        "vData": [
