[
  {
    "m_NNJson": {
      "dLearningRate": 0.1,
      "iHiddenNodes": 6,
      "iInputNodes": 4,
      "iOutputNodes": 1,
      "mBiasHidden": {
        "iCols": 1,
        "iRows": 6,
        "vData": [
          0.999938962981048,
          -0.7265541550950652,
          0.19968260750144973,
          -0.5784783471175268,
          -0.9692983794671468,
          -0.45023957029938655
        ]
      },
      "mBiasOutput": {
        "iCols": 1,
        "iRows": 1,
        "vData": [
          -0.5597399822992646
        ]
      },
      "mHiddenWeights": {
        "iCols": 6,
        "iRows": 1,
        "vData": [
          -0.6485488448744163,
          0.6025269325846125,
          0.10214545121616259,
          0.9222998748741111,
          0.27353740043336283,
          0.4793542283394878
        ]
      },
      "mInputWeights": {
        "iCols": 4,
        "iRows": 6,
        "vData": [
          0.6674092837305825,
          0.8115787224951934,
          0.07541123691518914,
          -0.009186071352275116,
          -0.26419873653370773,
          -0.8096865749076815,
          0.26908169804986715,
          -0.826288644062624,
          -0.36619159520249034,
          0.9410992767113253,
          -0.673390911587878,
          -0.8620563371684927,
          0.131076998199408,
          0.8773155919064912,
          -0.5587023529770806,
          0.40256965849787907,
          -0.6255989257484664,
          0.44584490493484297,
          -0.3903012176885281,
          0.9671620838038271,
          -0.6027100436414685,
          0.44956816309091474,
          -0.28708761864070553,
          -0.6820581682790612
        ]
      }
    },
    "m_iHiddenCount": 6,
    "m_iInputCount": 4,
    "m_iOutputCount": 1,
    "m_iScore": 0
  },
  {
    "m_NNJson": {
      "dLearningRate": 0.1,
      "iHiddenNodes": 6,
      "iInputNodes": 4,
      "iOutputNodes": 1,
      "mBiasHidden": {
        "iCols": 1,
        "iRows": 6,
        "vData": [
          0.999938962981048,
          -0.7265541550950652,
          0.19968260750144973,
          -0.5784783471175268,
          -0.9692983794671468,
          -0.45023957029938655
        ]
      },
      "mBiasOutput": {
        "iCols": 1,
        "iRows": 1,
        "vData": [
          -0.5597399822992646
        ]
      },
      "mHiddenWeights": {
        "iCols": 6,
        "iRows": 1,
        "vData": [
          -0.6485488448744163,
          0.6025269325846125,
          0.10214545121616259,
          0.9222998748741111,
          0.27353740043336283,
          0.4793542283394878
        ]
      },
      "mInputWeights": {
        "iCols": 4,
        "iRows": 6,
        "vData": [
          0.6674092837305825,
          0.8115787224951934,
          0.07541123691518914,
          -0.009186071352275116,
          -0.26419873653370773,
          -0.8096865749076815,
          0.26908169804986715,
          -0.826288644062624,
          -0.36619159520249034,
          0.9410992767113253,
          -0.673390911587878,
          -0.8620563371684927,
          0.131076998199408,
          0.8773155919064912,
          -0.5587023529770806,
          0.40256965849787907,
          -0.6255989257484664,
          0.44584490493484297,
          -0.3903012176885281,
          0.9671620838038271,
          -0.6027100436414685,
          0.44956816309091474,
          -0.28708761864070553,
          -0.6820581682790612
        ]
      }
    },
    "m_iHiddenCount": 6,
    "m_iInputCount": 4,
    "m_iOutputCount": 1,
    "m_iScore": 2
  },
  {
    "m_NNJson": {
      "dLearningRate": 0.1,
      "iHiddenNodes": 6,
      "iInputNodes": 4,
      "iOutputNodes": 1,
      "mBiasHidden": {
        "iCols": 1,
        "iRows": 6,
        "vData": [
          0.5407574694051942,
          -0.7995544297616505,
          0.6200445570238349,
          0.00790429395428327,
          0.37626270332956935,
          0.26041444135868397
        ]
      },
      "mBiasOutput": {
        "iCols": 1,
        "iRows": 1,
        "vData": [
          0.8852504043702505
        ]
      },
      "mHiddenWeights": {
        "iCols": 6,
        "iRows": 1,
        "vData": [
          -0.989257484664449,
          0.15176854762413394,
          -0.41776787621692557,
          0.9720450453199865,
          0.03543198950163284,
          -0.6823633533738211
        ]
      },
      "mInputWeights": {
        "iCols": 4,
        "iRows": 6,
        "vData": [
          0.4618976409192175,
          -0.2829981383709219,
          -0.6115604113895077,
          -0.7263710440382092,
          0.28952909939878535,
          0.11709952085940123,
          0.3398236030152286,
          0.5623645741142003,
          0.2023071993163854,
          0.4210638752403333,
          -0.8356273079622791,
          -0.7106234931485946,
          -0.8120059816278573,
          -0.3451948606830042,
          -0.18338572344126713,
          -0.5049287392803736,
          0.4159367656483657,
          -0.5597399822992646,
          -0.9591051973021638,
          -0.8849452192754905,
          0.5720694601275673,
          -0.76006347849971,
          0.8885464033936583,
          -0.31998657185583057
        ]
      }
    },
    "m_iHiddenCount": 6,
    "m_iInputCount": 4,
    "m_iOutputCount": 1,
    "m_iScore": 0
  },
  {
    "m_NNJson": {
      "dLearningRate": 0.1,
      "iHiddenNodes": 6,
      "iInputNodes": 4,
      "iOutputNodes": 1,
      "mBiasHidden": {
        "iCols": 1,
        "iRows": 6,
        "vData": [
          -0.48326059755241557,
          -0.782158879360332,
          -0.26639606921597947,
          -0.8359324930570391,
          -0.565660573137608,
          -0.5470442823572497
        ]
      },
      "mBiasOutput": {
        "iCols": 1,
        "iRows": 1,
        "vData": [
          0.3649098178044985
        ]
      },
      "mHiddenWeights": {
        "iCols": 6,
        "iRows": 1,
        "vData": [
          0.12216559343241684,
          0.47044282357249667,
          0.3725394451734978,
          -0.7535325174718467,
          -0.3786431470686972,
          0.29459517197180096
        ]
      },
      "mInputWeights": {
        "iCols": 4,
        "iRows": 6,
        "vData": [
          -0.3224890896328624,
          0.07754753257850888,
          -0.9478133487960448,
          -0.2560808130130925,
          -0.597338785973693,
          0.4813074129459518,
          0.3102206488235115,
          0.9409161656544693,
          -0.23795281838435012,
          0.9625843073824274,
          -0.04196295052949617,
          -0.586291085543382,
          0.020172734763634237,
          -0.619312112796411,
          0.457747123630482,
          0.6562395092623676,
          0.056123538926358796,
          0.017853328043458294,
          0.20609149449140896,
          0.7487105929746392,
          0.8174382763145849,
          -0.5341654713583788,
          0.12350840784936068,
          -0.15945921201208535
        ]
      }
    },
    "m_iHiddenCount": 6,
    "m_iInputCount": 4,
    "m_iOutputCount": 1,
    "m_iScore": 0
  },
  {
    "m_NNJson": {
      "dLearningRate": 0.1,
      "iHiddenNodes": 6,
      "iInputNodes": 4,
      "iOutputNodes": 1,
      "mBiasHidden": {
        "iCols": 1,
        "iRows": 6,
        "vData": [
          0.8798181096835231,
          -0.7603686635944701,
          -0.3069246498001038,
          0.1387676625873593,
          -0.8323923459578234,
          0.630726035340434
        ]
      },
      "mBiasOutput": {
        "iCols": 1,
        "iRows": 1,
        "vData": [
          0.6501968443861201
        ]
      },
      "mHiddenWeights": {
        "iCols": 6,
        "iRows": 1,
        "vData": [
          -0.5521713919492173,
          0.6345103305154576,
          0.48667867061372716,
          -0.0021057771538438574,
          -0.6501968443861201,
          -0.629749443037202
        ]
      },
      "mInputWeights": {
        "iCols": 4,
        "iRows": 6,
        "vData": [
          -0.5142063661610767,
          0.9271217993713188,
          0.14749595629749446,
          0.1258278145695364,
          -0.5454573198644979,
          0.12906277657399223,
          -0.23282570879238262,
          -0.06241035187841426,
          0.9639881588183232,
          -0.10403759880367447,
          0.1947386089663381,
          -0.370036927396466,
          0.4813074129459518,
          -0.9977416302987762,
          -0.423383281960509,
          0.3544114505447553,
          0.7795953245643483,
          -0.5536362804040651,
          -0.03445539719840085,
          0.8092593157750176,
          0.19455549790948212,
          -0.07071138645588548,
          -0.8657795953245644,
          -0.9514755699331645
        ]
      }
    },
    "m_iHiddenCount": 6,
    "m_iInputCount": 4,
    "m_iOutputCount": 1,
    "m_iScore": 0
  },
  {
    "m_NNJson": {
      "dLearningRate": 0.1,
      "iHiddenNodes": 6,
      "iInputNodes": 4,
      "iOutputNodes": 1,
      "mBiasHidden": {
        "iCols": 1,
        "iRows": 6,
        "vData": [
          -0.9926755577257607,
          -0.40763573107089446,
          0.9026459547715691,
          0.2830591753898739,
          -0.3119296853541673,
          -0.6046632282479324
        ]
      },
      "mBiasOutput": {
        "iCols": 1,
        "iRows": 1,
        "vData": [
          -0.17807550279244366
        ]
      },
      "mHiddenWeights": {
        "iCols": 6,
        "iRows": 1,
        "vData": [
          0.7520065919980468,
          0.07693716238898896,
          -0.5713980529190954,
          -0.6384166997283853,
          0.695364238410596,
          -0.9938352610858485
        ]
      },
      "mInputWeights": {
        "iCols": 4,
        "iRows": 6,
        "vData": [
          0.8825647755363628,
          0.3105868709372235,
          -0.20291756950590534,
          0.21225623340556043,
          0.7833185827204199,
          -0.7011017181920836,
          -0.9702139347514267,
          -0.8874477370525223,
          0.7126987517929624,
          0.3425702688680685,
          -0.7645802179021577,
          0.989745780816065,
          0.08731345561082793,
          -0.2644428846095157,
          0.9002044740134891,
          -0.7194738608966338,
          0.9100924710837122,
          -0.4711142307809687,
          0.6923123874629964,
          0.5165868099002044,
          0.97827082125309,
          -0.8441114535966063,
          0.836298715170751,
          -0.5490585039826654
        ]
      }
    },
    "m_iHiddenCount": 6,
    "m_iInputCount": 4,
    "m_iOutputCount": 1,
    "m_iScore": 2
  },
  {
    "m_NNJson": {
      "dLearningRate": 0.1,
      "iHiddenNodes": 6,
      "iInputNodes": 4,
      "iOutputNodes": 1,
      "mBiasHidden": {
        "iCols": 1,
        "iRows": 6,
        "vData": [
          0.8502151554918058,
          -0.6281014435254982,
          0.6487319559312723,
          -0.23569444868312628,
          0.16464735862300484,
          0.967467268898587
        ]
      },
      "mBiasOutput": {
        "iCols": 1,
        "iRows": 1,
        "vData": [
          -0.1878414258247627
        ]
      },
      "mHiddenWeights": {
        "iCols": 6,
        "iRows": 1,
        "vData": [
          0.43302713095492407,
          0.8614459669789727,
          0.7652516251106296,
          -0.23679311502426226,
          0.8121890926847133,
          0.024018066957609774
        ]
      },
      "mInputWeights": {
        "iCols": 4,
        "iRows": 6,
        "vData": [
          -0.7483443708609272,
          -0.6548966948454238,
          -0.2779320657979064,
          -0.010834070863979028,
          -0.1164891506698813,
          0.4448683126316111,
          0.034333323160496754,
          0.4250923184911648,
          -0.163243507187109,
          0.6654560991241187,
          -0.45774712363048187,
          0.16196172978911716,
          -0.4644001586962493,
          -0.23416852320932646,
          0.8720664082766199,
          0.6112552262947477,
          -0.12430188909573658,
          0.6702780236213264,
          -0.5796990874965666,
          0.07620471816156504,
          -0.532334360789819,
          -0.015350810266426596,
          -0.9462874233222449,
          0.903378398998993
        ]
      }
    },
    "m_iHiddenCount": 6,
    "m_iInputCount": 4,
    "m_iOutputCount": 1,
    "m_iScore": 0
  },
  {
    "m_NNJson": {
      "dLearningRate": 0.1,
      "iHiddenNodes": 6,
      "iInputNodes": 4,
      "iOutputNodes": 1,
      "mBiasHidden": {
        "iCols": 1,
        "iRows": 6,
        "vData": [
          -0.8295236060670796,
          -0.43998535111545156,
          -0.9428083132419812,
          0.36014893032624284,
          0.6919461653492844,
          -0.8969084749900815
        ]
      },
      "mBiasOutput": {
        "iCols": 1,
        "iRows": 1,
        "vData": [
          0.2662739951780755
        ]
      },
      "mHiddenWeights": {
        "iCols": 6,
        "iRows": 1,
        "vData": [
          -0.6722312082277901,
          0.6518448438978239,
          -0.4379711294900357,
          0.09347819452497941,
          -0.014557329020050691,
          -0.9667348246711631
        ]
      },
      "mInputWeights": {
        "iCols": 4,
        "iRows": 6,
        "vData": [
          -0.004791405987731534,
          0.19290749839777832,
          0.9724112674336984,
          -0.2304452650532548,
          -0.7875301370281076,
          0.6564836573381756,
          0.17709891048921178,
          -0.4548173467207861,
          0.1887569811090426,
          -0.5999633777886288,
          -0.8168889431440168,
          0.054231391338847024,
          0.3647877437665945,
          0.9067964720603046,
          -0.8753013702810755,
          -0.8546098208563494,
          -0.5584582049012726,
          -0.6672872096926786,
          0.7567674794763024,
          -0.11722159489730521,
          -0.7604907376323741,
          -0.8214056825464644,
          -0.30826746421704765,
          -0.9139988402966399
        ]
      }
    },
    "m_iHiddenCount": 6,
    "m_iInputCount": 4,
    "m_iOutputCount": 1,
    "m_iScore": 0
  },
  {
    "m_NNJson": {
      "dLearningRate": 0.1,
      "iHiddenNodes": 6,
      "iInputNodes": 4,
      "iOutputNodes": 1,
      "mBiasHidden": {
        "iCols": 1,
        "iRows": 6,
        "vData": [
          -0.8295236060670796,
          -0.43998535111545156,
          -0.9428083132419812,
          0.36014893032624284,
          0.6919461653492844,
          -0.8969084749900815
        ]
      },
      "mBiasOutput": {
        "iCols": 1,
        "iRows": 1,
        "vData": [
          0.2662739951780755
        ]
      },
      "mHiddenWeights": {
        "iCols": 6,
        "iRows": 1,
        "vData": [
          -0.6722312082277901,
          0.6518448438978239,
          -0.4379711294900357,
          0.09347819452497941,
          -0.014557329020050691,
          -0.9667348246711631
        ]
      },
      "mInputWeights": {
        "iCols": 4,
        "iRows": 6,
        "vData": [
          -0.004791405987731534,
          0.19290749839777832,
          0.9724112674336984,
          -0.2304452650532548,
          -0.7875301370281076,
          0.6564836573381756,
          0.17709891048921178,
          -0.4548173467207861,
          0.1887569811090426,
          -0.5999633777886288,
          -0.8168889431440168,
          0.054231391338847024,
          0.3647877437665945,
          0.9067964720603046,
          -0.8753013702810755,
          -0.8546098208563494,
          -0.5584582049012726,
          -0.6672872096926786,
          0.7567674794763024,
          -0.11722159489730521,
          -0.7604907376323741,
          -0.8214056825464644,
          -0.30826746421704765,
          -0.9139988402966399
        ]
      }
    },
    "m_iHiddenCount": 6,
    "m_iInputCount": 4,
    "m_iOutputCount": 1,
    "m_iScore": 0
  },
  {
    "m_NNJson": {
      "dLearningRate": 0.1,
      "iHiddenNodes": 6,
      "iInputNodes": 4,
      "iOutputNodes": 1,
      "mBiasHidden": {
        "iCols": 1,
        "iRows": 6,
        "vData": [
          0.47788933988464,
          0.9622180852687154,
          0.22733237708670306,
          0.6714377269814142,
          0.4403515732291634,
          -0.6279183324686421
        ]
      },
      "mBiasOutput": {
        "iCols": 1,
        "iRows": 1,
        "vData": [
          0.23496200445570237
        ]
      },
      "mHiddenWeights": {
        "iCols": 6,
        "iRows": 1,
        "vData": [
          0.576647236548967,
          0.6719870601519822,
          -0.5900143436994537,
          -0.8027893917661062,
          -0.3879207739494003,
          0.6967070528275399
        ]
      },
      "mInputWeights": {
        "iCols": 4,
        "iRows": 6,
        "vData": [
          0.20456556901760914,
          -0.10953093050935392,
          -0.7007965330973236,
          -0.6594744712668233,
          0.413068025757622,
          0.609057893612476,
          -0.22861415448469502,
          0.05990783410138256,
          -0.21127964110232855,
          0.05648976104007075,
          0.1786858729819636,
          0.17154454176458023,
          0.707510605182043,
          -0.22226630451368756,
          0.8674886318552202,
          0.6918240913113805,
          0.9530625324259163,
          0.9226660969878231,
          -0.11441389202551344,
          -0.01382488479262678,
          0.902829065828425,
          0.9382915738395337,
          0.15427106540116586,
          0.5027314065981017
        ]
      }
    },
    "m_iHiddenCount": 6,
    "m_iInputCount": 4,
    "m_iOutputCount": 1,
    "m_iScore": 0
  },
  {
    "m_NNJson": {
      "dLearningRate": 0.1,
      "iHiddenNodes": 6,
      "iInputNodes": 4,
      "iOutputNodes": 1,
      "mBiasHidden": {
        "iCols": 1,
        "iRows": 6,
        "vData": [
          -0.881344035157323,
          -0.4866176335947753,
          0.35612048707541133,
          -0.6713766899624622,
          0.16611224707785266,
          0.6178472243415631
        ]
      },
      "mBiasOutput": {
        "iCols": 1,
        "iRows": 1,
        "vData": [
          0.6818140202032532
        ]
      },
      "mHiddenWeights": {
        "iCols": 6,
        "iRows": 1,
        "vData": [
          -0.685720389416181,
          0.002166814172795739,
          -0.8815881832331309,
          -0.009552293465987072,
          0.42967009491256447,
          -0.206701864680929
        ]
      },
      "mInputWeights": {
        "iCols": 4,
        "iRows": 6,
        "vData": [
          0.011688589129306814,
          -0.2704855494857631,
          0.8293404950102237,
          -0.8755455183568834,
          -0.6083864864040041,
          0.32267220068971825,
          -0.23905148472548599,
          -0.5343485824152349,
          -0.8488723410748619,
          0.12057863093966481,
          0.8601031525620288,
          -0.478560747093112,
          0.42808313241981266,
          -0.554551835688345,
          0.9542222357860042,
          0.4277779473250527,
          -0.039826654866176314,
          0.6470839564195685,
          0.3033845027008881,
          0.47508163701284833,
          0.6619769890438552,
          0.6235236671040987,
          0.28861354411450546,
          0.29544969023712886
        ]
      }
    },
    "m_iHiddenCount": 6,
    "m_iInputCount": 4,
    "m_iOutputCount": 1,
    "m_iScore": 0
  },
  {
    "m_NNJson": {
      "dLearningRate": 0.1,
      "iHiddenNodes": 6,
      "iInputNodes": 4,
      "iOutputNodes": 1,
      "mBiasHidden": {
        "iCols": 1,
        "iRows": 6,
        "vData": [
          0.38901944029053626,
          -0.057710501419110716,
          -0.5562608722190008,
          -0.3382976775414289,
          0.2226325266273994,
          -0.24979400006103702
        ]
      },
      "mBiasOutput": {
        "iCols": 1,
        "iRows": 1,
        "vData": [
          -0.027069917905209517
        ]
      },
      "mHiddenWeights": {
        "iCols": 6,
        "iRows": 1,
        "vData": [
          -0.8215887936033204,
          -0.6651509140293588,
          -0.8112735374004334,
          -0.956724753563036,
          -0.9265114291817987,
          -0.32694479201635795
        ]
      },
      "mInputWeights": {
        "iCols": 4,
        "iRows": 6,
        "vData": [
          -0.8771935178685872,
          -0.12906277657399212,
          -0.1761223181859798,
          0.3527634510330515,
          -0.33542893765068515,
          -0.1506088442640462,
          -0.5121311075167089,
          -0.6677144688253426,
          0.5026703695791497,
          0.9307229834894863,
          0.6797387615588855,
          0.7814874721518601,
          0.08529923398541217,
          -0.619190038758507,
          0.7706228827784052,
          -0.9204077272865994,
          0.794732505264443,
          0.4913174840540788,
          -0.4295480208746605,
          0.7434003723258156,
          0.24265266884365366,
          0.9438459425641652,
          -0.5156102175969726,
          0.20670186468092888
        ]
      }
    },
    "m_iHiddenCount": 6,
    "m_iInputCount": 4,
    "m_iOutputCount": 1,
    "m_iScore": 0
  },
  {
    "m_NNJson": {
      "dLearningRate": 0.1,
      "iHiddenNodes": 6,
      "iInputNodes": 4,
      "iOutputNodes": 1,
      "mBiasHidden": {
        "iCols": 1,
        "iRows": 6,
        "vData": [
          0.12344737083040869,
          0.9541611987670522,
          0.5040131839960937,
          0.9700918607135227,
          -0.4990691854609821,
          -0.7079989013336588
        ]
      },
      "mBiasOutput": {
        "iCols": 1,
        "iRows": 1,
        "vData": [
          -0.7448652607806634
        ]
      },
      "mHiddenWeights": {
        "iCols": 6,
        "iRows": 1,
        "vData": [
          0.9368877224036378,
          -0.14523758659627062,
          0.8206122013000885,
          -0.1582995086519975,
          0.7911313211462752,
          -0.40092165898617516
        ]
      },
      "mInputWeights": {
        "iCols": 4,
        "iRows": 6,
        "vData": [
          0.8723105563524278,
          -0.15421002838221376,
          0.5258033997619556,
          0.48008667256691173,
          -0.7529221472823268,
          0.2193975646229438,
          0.9929807428205206,
          0.0688802758873257,
          0.2475966673787653,
          -0.29819635608996853,
          -0.2617572557756279,
          0.3215124973296304,
          -0.1750846888637959,
          0.5617542039246803,
          0.5896481215857416,
          0.8527176732688375,
          0.8389843440046387,
          0.10733359782708218,
          0.9596545304727317,
          0.4139835810419019,
          -0.9327982421338542,
          -0.0909756767479476,
          0.4267403180028688,
          0.3997009186071352
        ]
      }
    },
    "m_iHiddenCount": 6,
    "m_iInputCount": 4,
    "m_iOutputCount": 1,
    "m_iScore": 0
  },
  {
    "m_NNJson": {
      "dLearningRate": 0.1,
      "iHiddenNodes": 6,
      "iInputNodes": 4,
      "iOutputNodes": 1,
      "mBiasHidden": {
        "iCols": 1,
        "iRows": 6,
        "vData": [
          0.9984740745262002,
          0.0374462111270486,
          0.23569444868312628,
          -0.4897305215613269,
          -0.3675344096194342,
          -0.2330698568681906
        ]
      },
      "mBiasOutput": {
        "iCols": 1,
        "iRows": 1,
        "vData": [
          -0.1565294351023896
        ]
      },
      "mHiddenWeights": {
        "iCols": 6,
        "iRows": 1,
        "vData": [
          -0.10403759880367447,
          0.336649678029725,
          0.7238074892422255,
          0.8051698355052339,
          0.7225257118442334,
          -0.18259224219489123
        ]
      },
      "mInputWeights": {
        "iCols": 4,
        "iRows": 6,
        "vData": [
          -0.09665211951048314,
          0.31009857478560754,
          -0.706411938840907,
          0.19541001617481002,
          -0.45866267891476176,
          -0.4755699331644643,
          -0.011688589129306926,
          0.9304788354136784,
          -0.6169316690572832,
          0.347087008270516,
          -0.9881588183233131,
          -0.22043519394512767,
          -0.10769981994079414,
          -0.7996765037995545,
          0.6571550645466475,
          0.18594927823725094,
          0.7757499923703726,
          -0.1444441053498947,
          -0.06509598071230205,
          -0.858821375164037,
          -0.014740440076906669,
          0.6768700216681418,
          0.09427167577135531,
          0.8761558885464034
        ]
      }
    },
    "m_iHiddenCount": 6,
    "m_iInputCount": 4,
    "m_iOutputCount": 1,
    "m_iScore": 0
  },
  {
    "m_NNJson": {
      "dLearningRate": 0.1,
      "iHiddenNodes": 6,
      "iInputNodes": 4,
      "iOutputNodes": 1,
      "mBiasHidden": {
        "iCols": 1,
        "iRows": 6,
        "vData": [
          0.8223822748496963,
          0.08975493636890763,
          -0.11337626270332957,
          0.9945677053132724,
          -0.7125766777550584,
          -0.7782525101474044
        ]
      },
      "mBiasOutput": {
        "iCols": 1,
        "iRows": 1,
        "vData": [
          0.9904782250434889
        ]
      },
      "mHiddenWeights": {
        "iCols": 6,
        "iRows": 1,
        "vData": [
          -0.41526535843989376,
          0.7262489700003052,
          -0.6747337260048218,
          0.27671132541886645,
          -0.2812280648213141,
          -0.12210455641346474
        ]
      },
      "mInputWeights": {
        "iCols": 4,
        "iRows": 6,
        "vData": [
          -0.015289773247474603,
          0.044831690420239934,
          0.4465773491622669,
          -0.2169560838648641,
          0.28446302682576974,
          -0.15933713797418136,
          -0.7875911740470596,
          0.31076998199407946,
          0.37009796441541787,
          0.14401684621723065,
          -0.07773064363536486,
          -0.5807367168187505,
          -0.9622791222876674,
          -0.9597766045106357,
          -0.10092471083712273,
          -0.598071230201117,
          -0.3807184057130649,
          0.8980681783501694,
          -0.05557420575579086,
          -0.8670613727225562,
          0.6574602496414075,
          -0.40598773155919066,
          0.91338847010712,
          -0.4092226935636464
        ]
      }
    },
    "m_iHiddenCount": 6,
    "m_iInputCount": 4,
    "m_iOutputCount": 1,
    "m_iScore": 0
  },
  {
    "m_NNJson": {
      "dLearningRate": 0.1,
      "iHiddenNodes": 6,
      "iInputNodes": 4,
      "iOutputNodes": 1,
      "mBiasHidden": {
        "iCols": 1,
        "iRows": 6,
        "vData": [
          -0.12479018524735253,
          -0.003570665608691681,
          0.4972991119113743,
          0.5914181951353497,
          -0.052217169713431155,
          0.6765037995544299
        ]
      },
      "mBiasOutput": {
        "iCols": 1,
        "iRows": 1,
        "vData": [
          -0.04501480147709591
        ]
      },
      "mHiddenWeights": {
        "iCols": 6,
        "iRows": 1,
        "vData": [
          -0.4828333384197516,
          0.8536942655720694,
          -0.8125553147984252,
          0.901303140354625,
          -0.6214484084597308,
          0.7965025788140507
        ]
      },
      "mInputWeights": {
        "iCols": 4,
        "iRows": 6,
        "vData": [
          0.09781182287057111,
          -0.9114963225196081,
          0.028595843379009445,
          -0.6893215735343485,
          0.641163365581225,
          -0.33054597613452563,
          0.8760338145084994,
          -0.6698507644886624,
          -0.0986663411358989,
          0.9207739494003113,
          -0.9386577959532456,
          -0.14932706686605424,
          0.4263130588702049,
          -0.8626056703390607,
          0.8844569231238746,
          -0.5806146427808465,
          -0.7646412549211097,
          0.2779931028168585,
          0.41972106082338945,
          0.9621570482497634,
          -0.8972136600848415,
          0.36429944761497857,
          -0.43241676076540425,
          -0.11978514969328902
        ]
      }
    },
    "m_iHiddenCount": 6,
    "m_iInputCount": 4,
    "m_iOutputCount": 1,
    "m_iScore": 0
  },
  {
    "m_NNJson": {
      "dLearningRate": 0.1,
      "iHiddenNodes": 6,
      "iInputNodes": 4,
      "iOutputNodes": 1,
      "mBiasHidden": {
        "iCols": 1,
        "iRows": 6,
        "vData": [
          -0.18393505661183507,
          0.5207373271889402,
          -0.7835627307962278,
          0.5586413159581287,
          -0.3315225684377575,
          -0.3443403424176763
        ]
      },
      "mBiasOutput": {
        "iCols": 1,
        "iRows": 1,
        "vData": [
          0.5670644245735039
        ]
      },
      "mHiddenWeights": {
        "iCols": 6,
        "iRows": 1,
        "vData": [
          -0.26920377208777124,
          -0.9176000244148076,
          0.10788293099765012,
          -0.3274941251869259,
          0.41007721182897416,
          0.8394116031373027
        ]
      },
      "mInputWeights": {
        "iCols": 4,
        "iRows": 6,
        "vData": [
          0.1786858729819636,
          0.13577684865871142,
          -0.11032441175572982,
          -0.8969695120090335,
          0.9859614856410412,
          0.923459578234199,
          0.8868373668630025,
          -0.9335306863612781,
          -0.8745689260536516,
          -0.2681051057466354,
          0.8310495315408795,
          -0.027497177037873466,
          0.6484267708365123,
          -0.9311502426221503,
          -0.7839899899288919,
          -0.7098300119022187,
          0.29703665272988067,
          0.2593768120365001,
          0.41123691518906225,
          -0.12302011169774463,
          0.6014893032624287,
          -0.5947752311777093,
          0.034150212103640776,
          0.11178930021057765
        ]
      }
    },
    "m_iHiddenCount": 6,
    "m_iInputCount": 4,
    "m_iOutputCount": 1,
    "m_iScore": 0
  },
  {
    "m_NNJson": {
      "dLearningRate": 0.1,
      "iHiddenNodes": 6,
      "iInputNodes": 4,
      "iOutputNodes": 1,
      "mBiasHidden": {
        "iCols": 1,
        "iRows": 6,
        "vData": [
          -0.9639881588183233,
          0.08188116092410036,
          -0.42820520645771665,
          -0.7302774132511368,
          0.5234229560228278,
          0.16782128360850845
        ]
      },
      "mBiasOutput": {
        "iCols": 1,
        "iRows": 1,
        "vData": [
          0.67375713370159
        ]
      },
      "mHiddenWeights": {
        "iCols": 6,
        "iRows": 1,
        "vData": [
          0.4038514358958709,
          0.7775200659199806,
          0.3556932279427474,
          0.5030365916928616,
          -0.5231177709280679,
          -0.8771324808496352
        ]
      },
      "mInputWeights": {
        "iCols": 4,
        "iRows": 6,
        "vData": [
          0.46995452742088073,
          0.5630970183416242,
          -0.3509933774834437,
          0.8684652241584521,
          -0.9414044618060854,
          0.10184026612140262,
          -0.3469038972136601,
          -0.6107058931241798,
          0.7128818628498184,
          -0.9603259376812037,
          0.48600726340525524,
          -0.09140293588061155,
          0.23007904293954273,
          0.8756065553758354,
          0.9758903775139622,
          0.9659413434247872,
          -0.08133182775353254,
          -0.09591967528305922,
          -0.4202703939939574,
          0.16788232062746045,
          -0.9741813409833063,
          -0.8184148686178168,
          -0.26499221778008364,
          0.38309884945219275
        ]
      }
    },
    "m_iHiddenCount": 6,
    "m_iInputCount": 4,
    "m_iOutputCount": 1,
    "m_iScore": 0
  },
  {
    "m_NNJson": {
      "dLearningRate": 0.1,
      "iHiddenNodes": 6,
      "iInputNodes": 4,
      "iOutputNodes": 1,
      "mBiasHidden": {
        "iCols": 1,
        "iRows": 6,
        "vData": [
          0.814325388348033,
          -0.21640675069429605,
          0.9337748344370862,
          -0.945982238227485,
          -0.25449385052034057,
          0.2202520828882717
        ]
      },
      "mBiasOutput": {
        "iCols": 1,
        "iRows": 1,
        "vData": [
          -0.9692983794671468
        ]
      },
      "mHiddenWeights": {
        "iCols": 6,
        "iRows": 1,
        "vData": [
          -0.3841975157933286,
          0.859309671315653,
          -0.04458754234443185,
          -0.825312051759392,
          0.031830805383465055,
          0.8010803552354504
        ]
      },
      "mInputWeights": {
        "iCols": 4,
        "iRows": 6,
        "vData": [
          -0.7979064302499466,
          -0.7914975432599871,
          0.6216925565355389,
          0.9163792840357676,
          0.9371929074983978,
          -0.36014893032624284,
          -0.20218512527848143,
          -0.15884884182256542,
          -0.7868587298196357,
          0.42991424298837244,
          0.26493118076113165,
          0.8538773766289254,
          0.15585802789391767,
          -0.008331553086947219,
          -0.5860469374675741,
          0.8916592913602099,
          0.6223029267250588,
          -0.25296792504654075,
          -3.0518509475996325e-05,
          -0.3715628528702658,
          0.7755668813135166,
          0.653431806390576,
          -0.18839075899533064,
          0.7142857142857142
        ]
      }
    },
    "m_iHiddenCount": 6,
    "m_iInputCount": 4,
    "m_iOutputCount": 1,
    "m_iScore": 0
  },
  {
    "m_NNJson": {
      "dLearningRate": 0.1,
      "iHiddenNodes": 6,
      "iInputNodes": 4,
      "iOutputNodes": 1,
      "mBiasHidden": {
        "iCols": 1,
        "iRows": 6,
        "vData": [
          0.35007782219916384,
          -0.04019287697988827,
          0.4294259468367565,
          -0.630787072359386,
          -0.2313608203375347,
          -0.880245368816187
        ]
      },
      "mBiasOutput": {
        "iCols": 1,
        "iRows": 1,
        "vData": [
          -0.20035401470992154
        ]
      },
      "mHiddenWeights": {
        "iCols": 6,
        "iRows": 1,
        "vData": [
          0.6199224829859309,
          0.09054841761528376,
          0.9060029908139287,
          0.26474806970427567,
          -0.6885891293069246,
          0.18820764793847466
        ]
      },
      "mInputWeights": {
        "iCols": 4,
        "iRows": 6,
        "vData": [
          0.597033600878933,
          -0.1582384716330455,
          -0.3562425611133152,
          0.9598376415295877,
          -0.14743491927854246,
          0.631275368511002,
          0.9856563005462813,
          -0.3332316049684133,
          -0.05581835383159883,
          0.488204596087527,
          0.7110507522812586,
          -0.47251808221686453,
          0.4735557115390485,
          0.8973357341227455,
          0.4957731864375743,
          0.12527848139896847,
          -0.1402325510422071,
          0.09451582384716328,
          0.15268410290841405,
          -0.5403912472914822,
          0.7888729514450514,
          0.9683217871639149,
          -0.8226874599444562,
          -0.43919186986907555
        ]
      }
    },
    "m_iHiddenCount": 6,
    "m_iInputCount": 4,
    "m_iOutputCount": 1,
    "m_iScore": 0
  },
  {
    "m_NNJson": {
      "dLearningRate": 0.1,
      "iHiddenNodes": 6,
      "iInputNodes": 4,
      "iOutputNodes": 1,
      "mBiasHidden": {
        "iCols": 1,
        "iRows": 6,
        "vData": [
          0.8070619830927457,
          -0.7846003601184118,
          0.12100589007232876,
          -0.09414960173345133,
          -0.6342051454206976,
          0.5843379009369183
        ]
      },
      "mBiasOutput": {
        "iCols": 1,
        "iRows": 1,
        "vData": [
          -0.9926145207068087
        ]
      },
      "mHiddenWeights": {
        "iCols": 6,
        "iRows": 1,
        "vData": [
          0.532334360789819,
          0.03677480391857668,
          0.9951780755027924,
          -0.7220374156926176,
          -0.7640919217505417,
          -0.8981292153691214
        ]
      },
      "mInputWeights": {
        "iCols": 4,
        "iRows": 6,
        "vData": [
          -0.2960600604266488,
          -0.17667165135654772,
          -0.4174626911221656,
          0.11996826075014488,
          -0.4379711294900357,
          -0.424298837244789,
          -0.9939573351237525,
          -0.17313150425733204,
          0.44962920010986673,
          -0.9365825373088779,
          -0.4361400189214759,
          0.6725974303415021,
          -0.39060640278328806,
          0.7315591906491288,
          0.4025086214789271,
          0.7726981414227729,
          -0.9722891933957946,
          0.6218146305734429,
          0.3935361796929837,
          -0.478743858149968,
          -0.5044404431287576,
          0.4405957213049714,
          -0.8196356089968566,
          0.7000640888698997
        ]
      }
    },
    "m_iHiddenCount": 6,
    "m_iInputCount": 4,
    "m_iOutputCount": 1,
    "m_iScore": 0
  },
  {
    "m_NNJson": {
      "dLearningRate": 0.1,
      "iHiddenNodes": 6,
      "iInputNodes": 4,
      "iOutputNodes": 1,
      "mBiasHidden": {
        "iCols": 1,
        "iRows": 6,
        "vData": [
          -0.6971953489791558,
          -0.6757713553270058,
          0.6902371288186284,
          -0.543137913144322,
          0.09775078585161912,
          -0.250160222174749
        ]
      },
      "mBiasOutput": {
        "iCols": 1,
        "iRows": 1,
        "vData": [
          -0.12314218573564872
        ]
      },
      "mHiddenWeights": {
        "iCols": 6,
        "iRows": 1,
        "vData": [
          -0.6835840937528611,
          0.5705435346537675,
          -0.13449507126071958,
          0.8626667073580125,
          0.06424146244697404,
          0.36356700338755465
        ]
      },
      "mInputWeights": {
        "iCols": 4,
        "iRows": 6,
        "vData": [
          -0.9591051973021638,
          -0.6243171483504746,
          -0.728202154606769,
          -0.09543137913144317,
          0.9760124515518662,
          0.054963835566270935,
          -0.6682638019959105,
          0.7794122135074923,
          -0.8552812280648213,
          -0.7022614215521714,
          -0.030487990966521217,
          0.9280373546555987,
          -0.967528305917539,
          -0.9250465407269509,
          0.9920041505172887,
          0.7707449568163092,
          0.8558915982543414,
          -0.69579149754326,
          -0.05569627979369485,
          0.7785576952421644,
          0.8823816644795068,
          -0.859065523239845,
          0.4861293374431592,
          -0.40531632435071874
        ]
      }
    },
    "m_iHiddenCount": 6,
    "m_iInputCount": 4,
    "m_iOutputCount": 1,
    "m_iScore": 0
  },
  {
    "m_NNJson": {
      "dLearningRate": 0.1,
      "iHiddenNodes": 6,
      "iInputNodes": 4,
      "iOutputNodes": 1,
      "mBiasHidden": {
        "iCols": 1,
        "iRows": 6,
        "vData": [
          -0.45951719718008976,
          0.20975371562852874,
          -0.131015961180456,
          0.52226325266274,
          0.7740409558397168,
          -0.9295022431104465
        ]
      },
      "mBiasOutput": {
        "iCols": 1,
        "iRows": 1,
        "vData": [
          0.9660023804437392
        ]
      },
      "mHiddenWeights": {
        "iCols": 6,
        "iRows": 1,
        "vData": [
          -0.15189062166203804,
          0.76006347849971,
          -0.31608020264290293,
          -0.9741203039643543,
          0.38059633167516105,
          0.009247108371227108
        ]
      },
      "mInputWeights": {
        "iCols": 4,
        "iRows": 6,
        "vData": [
          0.9359721671193579,
          -0.5666982024597919,
          -0.20120853297524954,
          0.44096194341868333,
          0.36448255867183454,
          0.8475905636768699,
          0.22592852565080723,
          -0.15854365672780546,
          0.04275643177587196,
          0.3961607715079196,
          -0.8375804925687429,
          0.2892239143040254,
          0.9160130619220557,
          -0.8380077517014068,
          0.6027100436414685,
          -0.9284646137882626,
          0.31070894497512747,
          0.6003295999023408,
          0.8773766289254432,
          0.10745567186498617,
          0.7364421521652882,
          -0.6174199652088992,
          0.3715018158513139,
          0.04361095004120008
        ]
      }
    },
    "m_iHiddenCount": 6,
    "m_iInputCount": 4,
    "m_iOutputCount": 1,
    "m_iScore": 0
  },
  {
    "m_NNJson": {
      "dLearningRate": 0.1,
      "iHiddenNodes": 6,
      "iInputNodes": 4,
      "iOutputNodes": 1,
      "mBiasHidden": {
        "iCols": 1,
        "iRows": 6,
        "vData": [
          -0.6901760917996764,
          -0.003204443494979725,
          0.7991882076479384,
          0.1293069246498002,
          0.945860164189581,
          -0.9802850428785058
        ]
      },
      "mBiasOutput": {
        "iCols": 1,
        "iRows": 1,
        "vData": [
          -0.6057618945890683
        ]
      },
      "mHiddenWeights": {
        "iCols": 6,
        "iRows": 1,
        "vData": [
          0.6816309091463972,
          -0.8705404828028199,
          0.9634998626667073,
          -0.9709463789788507,
          -0.17221594897305215,
          0.3505661183507798
        ]
      },
      "mInputWeights": {
        "iCols": 4,
        "iRows": 6,
        "vData": [
          0.051301614429151376,
          -0.043244727927488014,
          0.05569627979369485,
          -0.11777092806787315,
          0.32456434827723024,
          -0.6443372905667287,
          -0.18430127872554702,
          0.8917813653981139,
          -0.05294961394085518,
          -0.023346659749137855,
          -0.836542863246559,
          0.18924527726065854,
          -0.8859218115787225,
          0.05087435529648743,
          -0.046967986083559676,
          -0.43076876125370034,
          -0.6272469252601702,
          -0.8548539689321574,
          -0.14017151402325512,
          -0.12277596362193666,
          -0.42967009491256447,
          -0.4335764641254921,
          0.4173406170842615,
          0.15066988128299807
        ]
      }
    },
    "m_iHiddenCount": 6,
    "m_iInputCount": 4,
    "m_iOutputCount": 1,
    "m_iScore": 0
  },
  {
    "m_NNJson": {
      "dLearningRate": 0.1,
      "iHiddenNodes": 6,
      "iInputNodes": 4,
      "iOutputNodes": 1,
      "mBiasHidden": {
        "iCols": 1,
        "iRows": 6,
        "vData": [
          -0.9476912747581409,
          -0.836725974303415,
          0.7200842310861537,
          -0.7020172734763634,
          0.06833094271675777,
          0.4974822229682303
        ]
      },
      "mBiasOutput": {
        "iCols": 1,
        "iRows": 1,
        "vData": [
          -0.7689748832667013
        ]
      },
      "mHiddenWeights": {
        "iCols": 6,
        "iRows": 1,
        "vData": [
          -0.5292825098422194,
          -0.510055848872341,
          0.2151249732963043,
          -0.2748191778313547,
          -0.9641712698751793,
          -0.11117893002105772
        ]
      },
      "mInputWeights": {
        "iCols": 4,
        "iRows": 6,
        "vData": [
          0.9169286172063356,
          0.02987762077700129,
          -0.3757744071779534,
          -0.5803094576860865,
          -0.8362376781517991,
          0.9412823877681813,
          0.37546922208319344,
          -0.6146732993560595,
          0.5812860499893184,
          0.8274483474227119,
          0.05502487258522293,
          -0.9293191320535905,
          -0.8620563371684927,
          0.9631946775719473,
          0.29636524552140875,
          0.20139164403210552,
          0.7792901394695884,
          -0.8537553025910214,
          -0.19492172002319408,
          -0.6352427747428815,
          0.630726035340434,
          0.33701590014343696,
          -0.31083101901303145,
          0.26908169804986715
        ]
      }
    },
    "m_iHiddenCount": 6,
    "m_iInputCount": 4,
    "m_iOutputCount": 1,
    "m_iScore": 0
  },
  {
    "m_NNJson": {
      "dLearningRate": 0.1,
      "iHiddenNodes": 6,
      "iInputNodes": 4,
      "iOutputNodes": 1,
      "mBiasHidden": {
        "iCols": 1,
        "iRows": 6,
        "vData": [
          0.9666127506332591,
          0.3390301217688527,
          -0.9387798699911496,
          -0.20291756950590534,
          -0.38059633167516094,
          0.8508865627002777
        ]
      },
      "mBiasOutput": {
        "iCols": 1,
        "iRows": 1,
        "vData": [
          -0.3028962065492722
        ]
      },
      "mHiddenWeights": {
        "iCols": 6,
        "iRows": 1,
        "vData": [
          -0.11337626270332957,
          0.27671132541886645,
          0.023773918881801803,
          -0.024750511185033686,
          -0.2898953215124973,
          -0.7633594775231178
        ]
      },
      "mInputWeights": {
        "iCols": 4,
        "iRows": 6,
        "vData": [
          0.9974974822229683,
          -0.3350627155369732,
          -0.6702780236213264,
          0.7468184453871274,
          0.022186956389049994,
          0.3342081972716453,
          -0.16971343119602034,
          0.5054780724509416,
          0.6096682638019959,
          0.047639393292031595,
          -0.9367656483657338,
          -0.7158116397595141,
          0.04751731925412761,
          0.7908871730704672,
          0.5260475478377635,
          -0.7713553270058291,
          0.9855342265083773,
          0.35428937650685133,
          0.6296884060182502,
          0.7587817011017182,
          0.2039551988280892,
          -0.7234412671285134,
          0.11844233527634507,
          -0.43900875881221957
        ]
      }
    },
    "m_iHiddenCount": 6,
    "m_iInputCount": 4,
    "m_iOutputCount": 1,
    "m_iScore": 0
  },
  {
    "m_NNJson": {
      "dLearningRate": 0.1,
      "iHiddenNodes": 6,
      "iInputNodes": 4,
      "iOutputNodes": 1,
      "mBiasHidden": {
        "iCols": 1,
        "iRows": 6,
        "vData": [
          -0.08236945707571641,
          0.5089571825312051,
          -0.8926969206823938,
          -0.8834803308206427,
          -0.08682515945921199,
          -0.6616718039490952
        ]
      },
      "mBiasOutput": {
        "iCols": 1,
        "iRows": 1,
        "vData": [
          -0.2466200750755333
        ]
      },
      "mHiddenWeights": {
        "iCols": 6,
        "iRows": 1,
        "vData": [
          0.8607745597705008,
          -0.6918851283303323,
          -0.30674153874324783,
          0.8002868739890743,
          -0.640858180486465,
          -0.9579454939420758
        ]
      },
      "mInputWeights": {
        "iCols": 4,
        "iRows": 6,
        "vData": [
          -0.8949552903836177,
          0.5342875453962828,
          -0.22916348765526295,
          0.40165410321359896,
          -0.2518692587054048,
          0.20975371562852874,
          -0.33133945738090154,
          0.7203894161809137,
          0.3996398815881832,
          0.4985198522904142,
          0.8729209265419478,
          0.49369792779320654,
          0.12906277657399223,
          0.5410626544999542,
          -0.08365123447370826,
          -0.73955504013184,
          -0.09317300943021944,
          -0.33481856746116523,
          -0.902584917752617,
          0.2789086581011384,
          0.4981536301767022,
          0.9551988280892361,
          0.02414014099551376,
          -0.8558305612353893
        ]
      }
    },
    "m_iHiddenCount": 6,
    "m_iInputCount": 4,
    "m_iOutputCount": 1,
    "m_iScore": 0
  },
  {
    "m_NNJson": {
      "dLearningRate": 0.1,
      "iHiddenNodes": 6,
      "iInputNodes": 4,
      "iOutputNodes": 1,
      "mBiasHidden": {
        "iCols": 1,
        "iRows": 6,
        "vData": [
          0.08786278878139586,
          0.13278603473006378,
          -0.3768730735190893,
          0.03372295297097683,
          -0.11337626270332957,
          0.8853724784081545
        ]
      },
      "mBiasOutput": {
        "iCols": 1,
        "iRows": 1,
        "vData": [
          -0.21738334299752804
        ]
      },
      "mHiddenWeights": {
        "iCols": 6,
        "iRows": 1,
        "vData": [
          0.7830133976256599,
          -0.554857020783105,
          0.1282082583086641,
          -0.7120273445844905,
          -0.47160252693258464,
          0.6077761162144841
        ]
      },
      "mInputWeights": {
        "iCols": 4,
        "iRows": 6,
        "vData": [
          0.3996398815881832,
          -0.00814844203009124,
          -0.7570726645710624,
          0.8430738242744225,
          0.673085726493118,
          0.22074037903988764,
          0.6788842432935576,
          0.35941648609881893,
          0.07748649555955689,
          -0.13058870204779194,
          0.9786370433668019,
          -0.7732474745933409,
          -0.3357951597643971,
          0.07834101382488479,
          0.8390453810235907,
          -0.00015259254737998162,
          0.8322702719199195,
          0.4598834192938017,
          0.9946287423322244,
          0.7617114780114138,
          -0.5256202887050996,
          -0.08914456617938782,
          0.0289620654927214,
          0.9380474257637257
        ]
      }
    },
    "m_iHiddenCount": 6,
    "m_iInputCount": 4,
    "m_iOutputCount": 1,
    "m_iScore": 0
  },
  {
    "m_NNJson": {
      "dLearningRate": 0.1,
      "iHiddenNodes": 6,
      "iInputNodes": 4,
      "iOutputNodes": 1,
      "mBiasHidden": {
        "iCols": 1,
        "iRows": 6,
        "vData": [
          -0.3350627155369732,
          0.17142246772667624,
          -0.7151402325510422,
          0.4550004577776421,
          -0.814569536423841,
          -0.045319986571855875
        ]
      },
      "mBiasOutput": {
        "iCols": 1,
        "iRows": 1,
        "vData": [
          0.717337565233314
        ]
      },
      "mHiddenWeights": {
        "iCols": 6,
        "iRows": 1,
        "vData": [
          0.8634601886043887,
          0.17490157780693982,
          -0.5984374523148289,
          0.9520249031037324,
          -0.532395397808771,
          0.8452101199377422
        ]
      },
      "mInputWeights": {
        "iCols": 4,
        "iRows": 6,
        "vData": [
          -0.8884243293557542,
          -0.02029480880153811,
          0.0654622028260139,
          -0.4542069765312662,
          -0.5308084353160192,
          0.8742637409588916,
          -0.6725363933225501,
          0.3795587023529772,
          -0.26310007019257176,
          -0.12289803765984064,
          0.5610827967162084,
          0.9719229712820825,
          0.02206488235114601,
          0.011017181920834895,
          -0.33628345591601305,
          -0.2671895504623554,
          -0.21317178868984044,
          -0.18747520371105075,
          -0.7426068910794397,
          -0.8981292153691214,
          -0.20444349497970515,
          -0.260841700491348,
          0.7164220099490342,
          -0.2847071749015778
        ]
      }
    },
    "m_iHiddenCount": 6,
    "m_iInputCount": 4,
    "m_iOutputCount": 1,
    "m_iScore": 0
  },
  {
    "m_NNJson": {
      "dLearningRate": 0.1,
      "iHiddenNodes": 6,
      "iInputNodes": 4,
      "iOutputNodes": 1,
      "mBiasHidden": {
        "iCols": 1,
        "iRows": 6,
        "vData": [
          -0.06131168553727839,
          0.433454390087588,
          -0.0705893124179815,
          -0.8123111667226173,
          -0.8854335154271066,
          0.40696432386242254
        ]
      },
      "mBiasOutput": {
        "iCols": 1,
        "iRows": 1,
        "vData": [
          -0.22513504440443133
        ]
      },
      "mHiddenWeights": {
        "iCols": 6,
        "iRows": 1,
        "vData": [
          -0.12875759147923216,
          -0.8356273079622791,
          -0.8861049226355785,
          0.6133304849391157,
          0.566454054383984,
          0.8676107058931242
        ]
      },
      "mInputWeights": {
        "iCols": 4,
        "iRows": 6,
        "vData": [
          -0.5239112521744438,
          0.9610583819086276,
          -0.6019165623950926,
          0.21469771416364014,
          -0.029511398663289334,
          -0.6799829096346934,
          0.7205725272377697,
          -0.727835932493057,
          -0.9439680166020692,
          -0.706839197973571,
          -0.9004486220892971,
          -0.7255165257728813,
          -0.47495956297494435,
          0.7743461409344767,
          -0.9576403088473159,
          -0.8650471510971405,
          0.3342081972716453,
          0.804559465315714,
          0.6923123874629964,
          -0.3764458143864253,
          0.5725577562791833,
          0.9181493575853756,
          0.04116946928312015,
          -0.01913510544145025
        ]
      }
    },
    "m_iHiddenCount": 6,
    "m_iInputCount": 4,
    "m_iOutputCount": 1,
    "m_iScore": 0
  },
  {
    "m_NNJson": {
      "dLearningRate": 0.1,
      "iHiddenNodes": 6,
      "iInputNodes": 4,
      "iOutputNodes": 1,
      "mBiasHidden": {
        "iCols": 1,
        "iRows": 6,
        "vData": [
          0.0027771843623156656,
          -0.9052095095675528,
          -0.45292519913327434,
          -0.95684682760094,
          0.8817712942899869,
          0.727958006530961
        ]
      },
      "mBiasOutput": {
        "iCols": 1,
        "iRows": 1,
        "vData": [
          -0.924741355632191
        ]
      },
      "mHiddenWeights": {
        "iCols": 6,
        "iRows": 1,
        "vData": [
          0.34147160252693265,
          -0.15695669423505354,
          -0.6688131351664784,
          -0.3629566331980346,
          -0.8387401959288309,
          0.00466933194982766
        ]
      },
      "mInputWeights": {
        "iCols": 4,
        "iRows": 6,
        "vData": [
          0.3832819605090487,
          0.06936857203894164,
          0.29276406140324096,
          -0.25461592455824456,
          0.1156956694235054,
          0.5297708059938353,
          0.5826288644062625,
          -0.07126071962645342,
          0.207617419965209,
          0.9260841700491349,
          -0.41532639545884575,
          -0.2715231788079471,
          0.25370036927396455,
          0.8618121890926846,
          0.32523575548570216,
          -0.44505142368846706,
          -0.4445631275368511,
          -0.16434217352824487,
          -0.901852473525193,
          -0.8434400463881344,
          -0.02206488235114601,
          -0.07840205084383678,
          -0.32511368144779806,
          0.23935666982024606
        ]
      }
    },
    "m_iHiddenCount": 6,
    "m_iInputCount": 4,
    "m_iOutputCount": 1,
    "m_iScore": 0
  },
  {
    "m_NNJson": {
      "dLearningRate": 0.1,
      "iHiddenNodes": 6,
      "iInputNodes": 4,
      "iOutputNodes": 1,
      "mBiasHidden": {
        "iCols": 1,
        "iRows": 6,
        "vData": [
          0.4311349833674123,
          0.6912137211218603,
          -0.9336527603991821,
          0.7004913480025636,
          -0.1573839533677175,
          0.31321146275215916
        ]
      },
      "mBiasOutput": {
        "iCols": 1,
        "iRows": 1,
        "vData": [
          0.11947996459852894
        ]
      },
      "mHiddenWeights": {
        "iCols": 6,
        "iRows": 1,
        "vData": [
          0.12076174199652079,
          -0.9285256508072146,
          0.02529984435560162,
          0.18228705710013116,
          0.34653767509994804,
          -0.12326425977355271
        ]
      },
      "mInputWeights": {
        "iCols": 4,
        "iRows": 6,
        "vData": [
          0.6486709189123203,
          -0.3887142551957763,
          -0.7696462904751732,
          0.5076143681142613,
          0.3068025757621997,
          0.9142429883724479,
          -0.6153447065645314,
          -0.8278756065553758,
          0.9815668202764978,
          0.7321695608386487,
          0.8613849299600207,
          0.5795159764397106,
          -0.6395153660695212,
          -0.5474105044709616,
          0.14737388225959047,
          -0.6792504654072695,
          0.5148167363505967,
          0.3281044953764458,
          -0.9122287667470321,
          0.052888576921903185,
          0.8964812158574176,
          -0.2659688100833155,
          0.36185796685689864,
          0.3212073122348704
        ]
      }
    },
    "m_iHiddenCount": 6,
    "m_iInputCount": 4,
    "m_iOutputCount": 1,
    "m_iScore": 0
  },
  {
    "m_NNJson": {
      "dLearningRate": 0.1,
      "iHiddenNodes": 6,
      "iInputNodes": 4,
      "iOutputNodes": 1,
      "mBiasHidden": {
        "iCols": 1,
        "iRows": 6,
        "vData": [
          -0.814142277291177,
          0.7007965330973236,
          -0.4703207495345927,
          0.8937955870235297,
          0.3342081972716453,
          -0.8401440473647267
        ]
      },
      "mBiasOutput": {
        "iCols": 1,
        "iRows": 1,
        "vData": [
          -0.9933469649342326
        ]
      },
      "mHiddenWeights": {
        "iCols": 6,
        "iRows": 1,
        "vData": [
          -0.14670247505111855,
          0.7050080874050111,
          -0.20352793969542526,
          0.358684041871395,
          -0.16733298745689262,
          0.9165013580736716
        ]
      },
      "mInputWeights": {
        "iCols": 4,
        "iRows": 6,
        "vData": [
          -0.6249275185399945,
          -0.6748558000427259,
          -0.3945738090151677,
          0.2432630390331736,
          -0.7163609729300822,
          0.13199255348368788,
          0.18515579699087503,
          -0.2891628772850734,
          0.6400036622211371,
          0.6490981780449843,
          -0.7141026032288583,
          -0.7781304361095004,
          -0.6418347727896969,
          -0.33371990112002925,
          -0.05832087160863064,
          0.46476638080996113,
          -0.9968871120334483,
          -0.4006775109103672,
          0.5740226447340311,
          0.16788232062746045,
          0.4097720267342142,
          -0.11807611316263311,
          0.06649983214819799,
          -0.8733481856746117
        ]
      }
    },
    "m_iHiddenCount": 6,
    "m_iInputCount": 4,
    "m_iOutputCount": 1,
    "m_iScore": 0
  },
  {
    "m_NNJson": {
      "dLearningRate": 0.1,
      "iHiddenNodes": 6,
      "iInputNodes": 4,
      "iOutputNodes": 1,
      "mBiasHidden": {
        "iCols": 1,
        "iRows": 6,
        "vData": [
          0.8750572222052675,
          0.8698690755943479,
          0.7037873470259712,
          0.15591906491286966,
          0.7101351969969787,
          -0.0016785180211797979
        ]
      },
      "mBiasOutput": {
        "iCols": 1,
        "iRows": 1,
        "vData": [
          -0.7667165135654774
        ]
      },
      "mHiddenWeights": {
        "iCols": 6,
        "iRows": 1,
        "vData": [
          -0.011261329996642977,
          -0.07174901577806936,
          -0.7468184453871273,
          0.5616931669057283,
          -0.35508285775322734,
          -0.2058473464156011
        ]
      },
      "mInputWeights": {
        "iCols": 4,
        "iRows": 6,
        "vData": [
          0.0467848750267037,
          0.8192693868831447,
          -0.8882412182988982,
          0.21195104831080047,
          0.5552232428968169,
          0.8627887813959165,
          0.12216559343241684,
          0.21481978820154413,
          0.07351908932767715,
          -0.15958128604998933,
          0.2516861476485488,
          -0.3415936765648365,
          -0.8124942777794733,
          -0.6605731376079592,
          -0.29557176427503284,
          0.03305154576250491,
          0.11911374248481699,
          -0.38309884945219275,
          -0.05960264900662249,
          -0.7355876338999603,
          -0.826288644062624,
          0.5074922940763573,
          0.20285653248695334,
          0.38138981292153695
        ]
      }
    },
    "m_iHiddenCount": 6,
    "m_iInputCount": 4,
    "m_iOutputCount": 1,
    "m_iScore": 0
  },
  {
    "m_NNJson": {
      "dLearningRate": 0.1,
      "iHiddenNodes": 6,
      "iInputNodes": 4,
      "iOutputNodes": 1,
      "mBiasHidden": {
        "iCols": 1,
        "iRows": 6,
        "vData": [
          -0.26578569902645954,
          0.7190466017639698,
          0.7538377025666065,
          -0.4209418012024293,
          -0.3783379619739372,
          -0.9839472640156255
        ]
      },
      "mBiasOutput": {
        "iCols": 1,
        "iRows": 1,
        "vData": [
          0.03494369335001668
        ]
      },
      "mHiddenWeights": {
        "iCols": 6,
        "iRows": 1,
        "vData": [
          0.047883541367839566,
          -0.7659840693380535,
          0.8192693868831447,
          0.6158330027161474,
          0.619312112796411,
          0.2797021393475143
        ]
      },
      "mInputWeights": {
        "iCols": 4,
        "iRows": 6,
        "vData": [
          0.859065523239845,
          -0.82525101474044,
          -0.3052766502883999,
          0.4353465376751,
          0.20548112430188903,
          -0.761162144840846,
          -0.8508255256813257,
          -0.739494003112888,
          -0.22238837855159155,
          -0.46055482650227364,
          -0.2841578417310099,
          -0.4032410657063509,
          -0.6640522476882229,
          -0.8640705587939085,
          0.1938840907010102,
          0.1140476699118016,
          0.6682638019959106,
          0.2714011047700431,
          0.034821619312112695,
          0.9156468398083437,
          -0.9090548417615284,
          -0.881282998138371,
          -0.6462294381542406,
          0.7549363689077426
        ]
      }
    },
    "m_iHiddenCount": 6,
    "m_iInputCount": 4,
    "m_iOutputCount": 1,
    "m_iScore": 0
  },
  {
    "m_NNJson": {
      "dLearningRate": 0.1,
      "iHiddenNodes": 6,
      "iInputNodes": 4,
      "iOutputNodes": 1,
      "mBiasHidden": {
        "iCols": 1,
        "iRows": 6,
        "vData": [
          0.6349375896481215,
          -0.9835810419019135,
          -0.3713797418134098,
          -0.6432996612445447,
          -0.026520584734641584,
          0.2347788933988464
        ]
      },
      "mBiasOutput": {
        "iCols": 1,
        "iRows": 1,
        "vData": [
          -0.42802209540086067
        ]
      },
      "mHiddenWeights": {
        "iCols": 6,
        "iRows": 1,
        "vData": [
          0.348796044801172,
          0.8012634662923064,
          -0.9013031403546251,
          -0.3376873073519089,
          -0.6597186193426313,
          -0.01181066316721091
        ]
      },
      "mInputWeights": {
        "iCols": 4,
        "iRows": 6,
        "vData": [
          0.6453749198889127,
          0.08304086428418844,
          -0.9411603137302774,
          -0.5956907864619891,
          0.13028351695303209,
          0.9222998748741111,
          -0.13406781212805563,
          -0.6123538926358837,
          -0.17032380138554037,
          0.2857448042237618,
          0.16019165623950937,
          0.04232917264320801,
          -0.8209784234138005,
          0.5200659199804682,
          -0.05819879757072666,
          -0.7521897030549027,
          -0.09982604449598687,
          -0.6209601123081149,
          0.1923581652272104,
          0.32963042085024563,
          0.20517593920712907,
          0.6608172856837673,
          -0.7856990264595477,
          0.2916653950621051
        ]
      }
    },
    "m_iHiddenCount": 6,
    "m_iInputCount": 4,
    "m_iOutputCount": 1,
    "m_iScore": 0
  },
  {
    "m_NNJson": {
      "dLearningRate": 0.1,
      "iHiddenNodes": 6,
      "iInputNodes": 4,
      "iOutputNodes": 1,
      "mBiasHidden": {
        "iCols": 1,
        "iRows": 6,
        "vData": [
          0.9146702475051118,
          -0.988708151493881,
          0.8190862758262887,
          -0.7733085116122929,
          -0.8607745597705008,
          -0.8885464033936583
        ]
      },
      "mBiasOutput": {
        "iCols": 1,
        "iRows": 1,
        "vData": [
          -0.283425397503586
        ]
      },
      "mHiddenWeights": {
        "iCols": 6,
        "iRows": 1,
        "vData": [
          0.6138187810907316,
          -0.4709311197241127,
          0.008636738181707182,
          0.6661275063325907,
          0.08792382580034785,
          -0.4080629902035584
        ]
      },
      "mInputWeights": {
        "iCols": 4,
        "iRows": 6,
        "vData": [
          0.935789056062502,
          0.6709494308297983,
          0.26743369853816334,
          0.8129215369121372,
          0.9479964598529007,
          0.8995941038239692,
          -0.038483840449232476,
          -0.9368266853846858,
          0.7813653981139561,
          -0.09994811853389085,
          0.6964629047517319,
          -0.06521805475020603,
          0.08249153111362051,
          0.8157292397839289,
          -0.20694601275673696,
          0.21189001129184848,
          -0.7429120761741996,
          -0.8470412305063021,
          -0.4388866847743156,
          -0.521835993530076,
          -0.9837641529587695,
          -0.6069826349681082,
          -0.2856227301858577,
          0.1207007049775688
        ]
      }
    },
    "m_iHiddenCount": 6,
    "m_iInputCount": 4,
    "m_iOutputCount": 1,
    "m_iScore": 0
  },
  {
    "m_NNJson": {
      "dLearningRate": 0.1,
      "iHiddenNodes": 6,
      "iInputNodes": 4,
      "iOutputNodes": 1,
      "mBiasHidden": {
        "iCols": 1,
        "iRows": 6,
        "vData": [
          -0.5629139072847682,
          -0.9710684530167547,
          -0.010895107882931021,
          -0.8848841822565385,
          -0.923825800347911,
          0.10025330362865081
        ]
      },
      "mBiasOutput": {
        "iCols": 1,
        "iRows": 1,
        "vData": [
          0.531846064638203
        ]
      },
      "mHiddenWeights": {
        "iCols": 6,
        "iRows": 1,
        "vData": [
          -0.13754692220831932,
          0.7631153294473099,
          0.2576067384868923,
          0.391094698934904,
          -0.47825556199835195,
          0.39072847682119205
        ]
      },
      "mInputWeights": {
        "iCols": 4,
        "iRows": 6,
        "vData": [
          -0.3614307077242348,
          -0.9097872859889523,
          -0.40104373302407914,
          -0.4684896389660329,
          0.2083498641926329,
          -0.7976622821741386,
          0.8021179845576343,
          0.29197058015686506,
          -0.1472518082216865,
          -0.6131473738822596,
          0.21189001129184848,
          0.22318185979796756,
          -0.5753654591509751,
          -0.9686269722586749,
          0.82677694021424,
          -0.15317239906002988,
          -0.1904049806207465,
          -0.8713950010681478,
          -0.2798242133854183,
          0.7866756187627797,
          0.6018555253761406,
          0.4983367412335582,
          0.6254768517105624,
          0.2662129581591235
        ]
      }
    },
    "m_iHiddenCount": 6,
    "m_iInputCount": 4,
    "m_iOutputCount": 1,
    "m_iScore": 0
  },
  {
    "m_NNJson": {
      "dLearningRate": 0.1,
      "iHiddenNodes": 6,
      "iInputNodes": 4,
      "iOutputNodes": 1,
      "mBiasHidden": {
        "iCols": 1,
        "iRows": 6,
        "vData": [
          0.12521744438001647,
          -0.41178624835963007,
          -0.16013061922055727,
          -0.2212286751915037,
          -0.967833491012299,
          -0.39243751335184784
        ]
      },
      "mBiasOutput": {
        "iCols": 1,
        "iRows": 1,
        "vData": [
          -0.7634205145420698
        ]
      },
      "mHiddenWeights": {
        "iCols": 6,
        "iRows": 1,
        "vData": [
          0.6752830591753898,
          -0.6624042481765191,
          -0.3162633136997589,
          -0.901974547563097,
          0.14072084719382305,
          0.2254402294991913
        ]
      },
      "mInputWeights": {
        "iCols": 4,
        "iRows": 6,
        "vData": [
          0.7850886562700277,
          -0.6114383373516037,
          0.46037171544541766,
          -0.23075045014801476,
          -0.2431409649952696,
          0.5889767143772697,
          -0.9061250648518326,
          -0.5820184942167425,
          -0.5995361186559649,
          0.17380291146580396,
          -0.06314279610583817,
          0.663380840479751,
          0.6428724021118808,
          0.6095461897640919,
          0.84850611896115,
          -0.8491164891506698,
          -0.12393566698202463,
          -0.2677999206518754,
          0.28257087923825797,
          0.6337778862880337,
          -0.5019379253517258,
          0.3766899624622333,
          0.6496475112155522,
          0.1350444044312875
        ]
      }
    },
    "m_iHiddenCount": 6,
    "m_iInputCount": 4,
    "m_iOutputCount": 1,
    "m_iScore": 0
  },
  {
    "m_NNJson": {
      "dLearningRate": 0.1,
      "iHiddenNodes": 6,
      "iInputNodes": 4,
      "iOutputNodes": 1,
      "mBiasHidden": {
        "iCols": 1,
        "iRows": 6,
        "vData": [
          0.9205298013245033,
          -0.44932401501510666,
          -0.6696066164128545,
          0.9052705465865047,
          0.6639912106692709,
          -0.738700521866512
        ]
      },
      "mBiasOutput": {
        "iCols": 1,
        "iRows": 1,
        "vData": [
          0.8790856654560992
        ]
      },
      "mHiddenWeights": {
        "iCols": 6,
        "iRows": 1,
        "vData": [
          0.7454756309701833,
          0.11233863338114558,
          0.053559984130375105,
          -0.041169469283120264,
          0.49278237250892665,
          0.8319040498062074
        ]
      },
      "mInputWeights": {
        "iCols": 4,
        "iRows": 6,
        "vData": [
          0.8380077517014068,
          -0.6492812891018402,
          -0.608508560441908,
          -0.019684438612018185,
          0.7360759300515762,
          -0.06344798120059814,
          -0.17075106051820432,
          0.9762565996276742,
          0.13748588518936744,
          0.6156498916592914,
          0.989745780816065,
          0.358989226966155,
          0.02597125156407354,
          0.9534897915585803,
          -0.3733939634388257,
          0.5167088839381084,
          0.28861354411450546,
          -0.8665730765709403,
          0.6555070650349437,
          -0.6946317941831721,
          0.5501571703238013,
          -0.2957548753318888,
          -0.8381908627582628,
          0.27439191869869073
        ]
      }
    },
    "m_iHiddenCount": 6,
    "m_iInputCount": 4,
    "m_iOutputCount": 1,
    "m_iScore": 0
  },
  {
    "m_NNJson": {
      "dLearningRate": 0.1,
      "iHiddenNodes": 6,
      "iInputNodes": 4,
      "iOutputNodes": 1,
      "mBiasHidden": {
        "iCols": 1,
        "iRows": 6,
        "vData": [
          -0.3198644978179266,
          -0.6768089846491898,
          0.8926969206823938,
          -0.5236060670796838,
          0.4846034119693594,
          0.2748191778313547
        ]
      },
      "mBiasOutput": {
        "iCols": 1,
        "iRows": 1,
        "vData": [
          0.18143253883480326
        ]
      },
      "mHiddenWeights": {
        "iCols": 6,
        "iRows": 1,
        "vData": [
          -0.7315591906491288,
          -0.5635242774742881,
          -0.2594988860744041,
          -0.09677419354838712,
          0.6934110538041323,
          -0.020905178991058038
        ]
      },
      "mInputWeights": {
        "iCols": 4,
        "iRows": 6,
        "vData": [
          0.2856227301858578,
          -0.6755272072511979,
          -0.0467848750267037,
          -0.45109408856471445,
          -0.8372753074739829,
          -0.4216132084109012,
          0.17996765037995544,
          0.9695425275429548,
          -0.6006958220160528,
          0.9714957121494185,
          0.8997161778618732,
          0.4921720023194067,
          0.6487929929502243,
          -0.8193304239020966,
          0.1683706167790766,
          -0.31150242622150337,
          -0.021332438123721986,
          0.6572771385845515,
          0.6725974303415021,
          -0.6215094454786828,
          -0.7107455671864986,
          -0.38126773888363297,
          -0.9976195562608722,
          -0.9376812036500137
        ]
      }
    },
    "m_iHiddenCount": 6,
    "m_iInputCount": 4,
    "m_iOutputCount": 1,
    "m_iScore": 2
  },
  {
    "m_NNJson": {
      "dLearningRate": 0.1,
      "iHiddenNodes": 6,
      "iInputNodes": 4,
      "iOutputNodes": 1,
      "mBiasHidden": {
        "iCols": 1,
        "iRows": 6,
        "vData": [
          -0.18521683400982691,
          0.25461592455824467,
          0.08218634601886055,
          -0.014374217963194713,
          0.6354258857997375,
          -0.9499496444593646
        ]
      },
      "mBiasOutput": {
        "iCols": 1,
        "iRows": 1,
        "vData": [
          -0.618823816644795
        ]
      },
      "mHiddenWeights": {
        "iCols": 6,
        "iRows": 1,
        "vData": [
          -0.4158757286294137,
          0.7875911740470596,
          -0.7325968199713127,
          -0.8423413800469985,
          -0.304239020966216,
          -0.13974425489059117
        ]
      },
      "mInputWeights": {
        "iCols": 4,
        "iRows": 6,
        "vData": [
          -0.19925534836878567,
          -0.695608386486404,
          0.5995361186559649,
          -0.6346324045533616,
          -0.09384441663869136,
          0.39255958738975183,
          -0.2646870326853237,
          0.9174169133579515,
          -0.10861537522507403,
          -0.04538102359080787,
          0.17191076387829218,
          -0.7878353221228676,
          -0.7245399334696494,
          -0.24936674092837308,
          0.6768089846491898,
          0.8036439100314341,
          0.8277535325174719,
          -0.8190252388073367,
          0.9250465407269508,
          0.03854487746818447,
          0.391033661915952,
          -0.934263130588702,
          0.41044343394268634,
          -0.4269234290597247
        ]
      }
    },
    "m_iHiddenCount": 6,
    "m_iInputCount": 4,
    "m_iOutputCount": 1,
    "m_iScore": 0
  },
  {
    "m_NNJson": {
      "dLearningRate": 0.1,
      "iHiddenNodes": 6,
      "iInputNodes": 4,
      "iOutputNodes": 1,
      "mBiasHidden": {
        "iCols": 1,
        "iRows": 6,
        "vData": [
          0.14737388225959047,
          0.5997802667317729,
          -0.22751548814355904,
          0.47569200720236826,
          -0.7326578569902646,
          0.4922940763573107
        ]
      },
      "mBiasOutput": {
        "iCols": 1,
        "iRows": 1,
        "vData": [
          0.10666219061861026
        ]
      },
      "mHiddenWeights": {
        "iCols": 6,
        "iRows": 1,
        "vData": [
          -0.9763786736655782,
          0.6620990630817591,
          -0.7756279183324686,
          0.06466872157963799,
          0.08230842005676453,
          -0.9462874233222449
        ]
      },
      "mInputWeights": {
        "iCols": 4,
        "iRows": 6,
        "vData": [
          0.1241798150578326,
          0.6973784600360118,
          -0.38395336771752064,
          -0.1258888515884884,
          0.2714011047700431,
          -0.07638782921842102,
          0.3594775231177709,
          0.09970397045808288,
          -0.9407940916165655,
          0.6703390606402784,
          0.27683339945677043,
          -0.5896481215857418,
          -0.6669209875789666,
          -0.9531235694448683,
          0.10318308053834646,
          -0.5892208624530778,
          -0.14914395580919826,
          -0.9340189825128941,
          -0.0578325754570147,
          0.3649098178044985,
          -0.9055146946623127,
          0.4581743827631459,
          0.07211523789178131,
          0.028778954435865423
        ]
      }
    },
    "m_iHiddenCount": 6,
    "m_iInputCount": 4,
    "m_iOutputCount": 1,
    "m_iScore": 0
  },
  {
    "m_NNJson": {
      "dLearningRate": 0.1,
      "iHiddenNodes": 6,
      "iInputNodes": 4,
      "iOutputNodes": 1,
      "mBiasHidden": {
        "iCols": 1,
        "iRows": 6,
        "vData": [
          -0.6660664693136387,
          0.23648792992950218,
          0.11459700308236953,
          -0.8325754570146794,
          -0.38566240424817655,
          -0.543565172276986
        ]
      },
      "mBiasOutput": {
        "iCols": 1,
        "iRows": 1,
        "vData": [
          -0.6152226325266275
        ]
      },
      "mHiddenWeights": {
        "iCols": 6,
        "iRows": 1,
        "vData": [
          0.030854213080233173,
          -0.6791283913693655,
          0.09610278633991509,
          -0.7604297006134221,
          0.18582720419934695,
          0.8644978179265725
        ]
      },
      "mInputWeights": {
        "iCols": 4,
        "iRows": 6,
        "vData": [
          0.7365031891842402,
          0.6031373027741325,
          -0.5029755546739098,
          0.9580675679799799,
          0.2745139927365947,
          -0.15689565721610155,
          -0.2652974028748436,
          -0.18643757438886688,
          0.6782738731040376,
          0.6934110538041323,
          0.08127079073458043,
          0.8355662709433271,
          -0.8345286416211433,
          -0.6428724021118808,
          -0.6422620319223609,
          0.26902066103091515,
          -0.12289803765984064,
          -0.2160405285805841,
          -0.4006164738914152,
          -0.6431775872066408,
          0.03842280343028048,
          0.435468611713004,
          0.008087405011139248,
          -0.26725058748130737
        ]
      }
    },
    "m_iHiddenCount": 6,
    "m_iInputCount": 4,
    "m_iOutputCount": 1,
    "m_iScore": 0
  },
  {
    "m_NNJson": {
      "dLearningRate": 0.1,
      "iHiddenNodes": 6,
      "iInputNodes": 4,
      "iOutputNodes": 1,
      "mBiasHidden": {
        "iCols": 1,
        "iRows": 6,
        "vData": [
          -0.7182531205175939,
          0.05807672353282256,
          0.8580278939176611,
          0.7034211249122593,
          0.5361186559648428,
          -0.3819391460921049
        ]
      },
      "mBiasOutput": {
        "iCols": 1,
        "iRows": 1,
        "vData": [
          -0.4279000213629567
        ]
      },
      "mHiddenWeights": {
        "iCols": 6,
        "iRows": 1,
        "vData": [
          -0.9906002990813929,
          0.025727103488265568,
          -0.6123538926358837,
          0.1625110629596851,
          -0.022431104464857965,
          0.9486678670613726
        ]
      },
      "mInputWeights": {
        "iCols": 4,
        "iRows": 6,
        "vData": [
          0.5620593890194403,
          0.6093630787072359,
          -0.14261299478133493,
          0.2551042207098606,
          0.7020172734763634,
          -0.7549974059266945,
          0.5538804284798731,
          -0.9530625324259163,
          -0.39139988402966397,
          0.901486251411481,
          -0.21207312234870446,
          0.7387615588854641,
          0.33951841792046866,
          -0.6754051332132939,
          0.564683980834376,
          0.5856807153538621,
          -0.6820581682790612,
          -0.32023071993163854,
          -0.9149754325998718,
          -0.1037324137089145,
          -0.11551255836664942,
          -0.8548539689321574,
          -0.7865535447248756,
          -0.12125003814813684
        ]
      }
    },
    "m_iHiddenCount": 6,
    "m_iInputCount": 4,
    "m_iOutputCount": 1,
    "m_iScore": 0
  },
  {
    "m_NNJson": {
      "dLearningRate": 0.1,
      "iHiddenNodes": 6,
      "iInputNodes": 4,
      "iOutputNodes": 1,
      "mBiasHidden": {
        "iCols": 1,
        "iRows": 6,
        "vData": [
          -0.6503799554429761,
          0.512253181554613,
          -0.5284279915768915,
          -0.913205359050264,
          0.2559587389751885,
          -0.7813043610950041
        ]
      },
      "mBiasOutput": {
        "iCols": 1,
        "iRows": 1,
        "vData": [
          0.37632374034852134
        ]
      },
      "mHiddenWeights": {
        "iCols": 6,
        "iRows": 1,
        "vData": [
          0.4863124485000152,
          -0.36008789330729085,
          0.0790124210333567,
          0.48258919034394365,
          0.846797082430494,
          -0.18222602008117927
        ]
      },
      "mInputWeights": {
        "iCols": 4,
        "iRows": 6,
        "vData": [
          -0.0722983489486374,
          0.9636829737235633,
          -0.5164036988433485,
          -0.8199407940916166,
          0.902829065828425,
          0.5551622058778649,
          0.36606952116458635,
          -0.05880916776024658,
          -0.7427900021362956,
          0.9887691885128331,
          0.3444624164555803,
          0.8600421155430769,
          -0.13504440443128762,
          -0.7043366801965392,
          0.36509292886135447,
          -0.02279732657856992,
          0.9643543809320352,
          0.6801049836725974,
          0.05911435285500666,
          -0.3300576799829096,
          0.6122318185979796,
          0.4056215094454787,
          0.3315225684377574,
          0.13455610827967157
        ]
      }
    },
    "m_iHiddenCount": 6,
    "m_iInputCount": 4,
    "m_iOutputCount": 1,
    "m_iScore": 0
  },
  {
    "m_NNJson": {
      "dLearningRate": 0.1,
      "iHiddenNodes": 6,
      "iInputNodes": 4,
      "iOutputNodes": 1,
      "mBiasHidden": {
        "iCols": 1,
        "iRows": 6,
        "vData": [
          -0.13626514481032748,
          -0.8507644886623738,
          -0.28934598834192937,
          0.8536332285531174,
          -0.3000885036774804,
          -0.934934537797174
        ]
      },
      "mBiasOutput": {
        "iCols": 1,
        "iRows": 1,
        "vData": [
          0.06900234992522969
        ]
      },
      "mHiddenWeights": {
        "iCols": 6,
        "iRows": 1,
        "vData": [
          0.5308084353160192,
          0.6483046967986084,
          -0.8323313089388714,
          -0.7453535569322794,
          0.27597888119144254,
          -0.28794213690603354
        ]
      },
      "mInputWeights": {
        "iCols": 4,
        "iRows": 6,
        "vData": [
          0.8602862636188848,
          0.8507034516434218,
          -0.6598406933805353,
          -0.6561784722434156,
          -0.6469008453627125,
          0.9547105319376201,
          -0.8096255378887295,
          0.5756096072267831,
          -0.49858088930936617,
          0.4047059541611988,
          0.8783532212286751,
          0.2303231910153507,
          -0.11423078096865746,
          0.6942045350505082,
          -0.7828913235877559,
          0.9864497817926572,
          0.11667226172673728,
          -0.9447004608294931,
          -0.6799218726157414,
          0.07522812585833316,
          -0.2142704550309763,
          -0.1454817346720786,
          -0.336710715048677,
          0.34318063905758844
        ]
      }
    },
    "m_iHiddenCount": 6,
    "m_iInputCount": 4,
    "m_iOutputCount": 1,
    "m_iScore": 0
  },
  {
    "m_NNJson": {
      "dLearningRate": 0.1,
      "iHiddenNodes": 6,
      "iInputNodes": 4,
      "iOutputNodes": 1,
      "mBiasHidden": {
        "iCols": 1,
        "iRows": 6,
        "vData": [
          0.29563280129398484,
          -0.4754478591265603,
          0.8196356089968566,
          -0.9220557267983032,
          -0.39414654988250375,
          -0.08682515945921199
        ]
      },
      "mBiasOutput": {
        "iCols": 1,
        "iRows": 1,
        "vData": [
          0.9188207647938476
        ]
      },
      "mHiddenWeights": {
        "iCols": 6,
        "iRows": 1,
        "vData": [
          0.47141941587572855,
          0.9639881588183232,
          0.3534958952604754,
          -0.33555101168858914,
          0.04953154087954337,
          0.6695455793939025
        ]
      },
      "mInputWeights": {
        "iCols": 4,
        "iRows": 6,
        "vData": [
          0.8055970946378979,
          -0.47587511825922424,
          0.2740256965849788,
          0.23245948667867067,
          -0.041413617358928234,
          0.2991729483932004,
          0.7506027405621509,
          -0.1139866328928495,
          -0.7167882320627461,
          0.8633381145664847,
          -0.739677114169744,
          0.3010040589617604,
          0.5529648731955932,
          0.46745200964384903,
          -0.663441877498703,
          0.01937925351725811,
          -0.28354747154148996,
          -0.4599444563127537,
          -0.12912381359294411,
          0.8362376781517991,
          0.9799798577837457,
          -0.30997650074770344,
          0.3537400433362834,
          0.3275551622058779
        ]
      }
    },
    "m_iHiddenCount": 6,
    "m_iInputCount": 4,
    "m_iOutputCount": 1,
    "m_iScore": 0
  },
  {
    "m_NNJson": {
      "dLearningRate": 0.1,
      "iHiddenNodes": 6,
      "iInputNodes": 4,
      "iOutputNodes": 1,
      "mBiasHidden": {
        "iCols": 1,
        "iRows": 6,
        "vData": [
          0.5245826593829157,
          0.7333292641987366,
          -0.6774803918576617,
          0.7358928189947203,
          -0.5288552507095554,
          -0.21640675069429605
        ]
      },
      "mBiasOutput": {
        "iCols": 1,
        "iRows": 1,
        "vData": [
          -0.04147465437788023
        ]
      },
      "mHiddenWeights": {
        "iCols": 6,
        "iRows": 1,
        "vData": [
          -0.23148289437543867,
          0.18997772148808245,
          -0.30637531662953577,
          0.4792931913205358,
          0.43076876125370034,
          0.056123538926358796
        ]
      },
      "mInputWeights": {
        "iCols": 4,
        "iRows": 6,
        "vData": [
          0.3086336863307597,
          -0.8104190191351055,
          -0.782158879360332,
          -0.8115787224951934,
          -0.09762871181371502,
          0.5079805902279733,
          -0.42301705984679705,
          -0.6715598010193182,
          -0.6498916592913602,
          0.0025940733054596876,
          -0.7449873348185674,
          0.7816705832087161,
          0.6105838190862758,
          0.11508529923398547,
          0.9746696371349224,
          0.23667104098635816,
          0.04849391155735949,
          -0.5413068025757621,
          0.772209845271157,
          0.9564806054872279,
          0.7588427381206702,
          -0.902401806695761,
          -0.5908688619647817,
          -0.20566423535874512
        ]
      }
    },
    "m_iHiddenCount": 6,
    "m_iInputCount": 4,
    "m_iOutputCount": 1,
    "m_iScore": 0
  },
  {
    "m_NNJson": {
      "dLearningRate": 0.1,
      "iHiddenNodes": 6,
      "iInputNodes": 4,
      "iOutputNodes": 1,
      "mBiasHidden": {
        "iCols": 1,
        "iRows": 6,
        "vData": [
          0.11459700308236953,
          0.4071474349192785,
          0.7367473372600482,
          -0.11667226172673728,
          -0.23349711600085454,
          -0.04037598803674425
        ]
      },
      "mBiasOutput": {
        "iCols": 1,
        "iRows": 1,
        "vData": [
          -0.5818353831598865
        ]
      },
      "mHiddenWeights": {
        "iCols": 6,
        "iRows": 1,
        "vData": [
          -0.9869991149632252,
          -0.27347636341441084,
          -0.631092257454146,
          0.31089205603198344,
          -0.7756889553514206,
          0.2261116367076632
        ]
      },
      "mInputWeights": {
        "iCols": 4,
        "iRows": 6,
        "vData": [
          -0.08133182775353254,
          -0.24973296304208503,
          0.021332438123722097,
          -0.653370769371624,
          -0.35435041352580343,
          0.8527176732688375,
          -0.8666341135898923,
          0.9440290536210212,
          -0.5209814752647481,
          -0.8010803552354503,
          -0.6126590777306437,
          -0.19193090609454633,
          -0.5026093325601977,
          0.8474074526200139,
          0.7261879329813532,
          0.7554246650593586,
          0.314615314188055,
          -0.23416852320932646,
          0.8179265724662008,
          -0.9318216498306222,
          0.22574541459395125,
          -0.35587633899960325,
          -0.1327249977111118,
          -0.6911526841029084
        ]
      }
    },
    "m_iHiddenCount": 6,
    "m_iInputCount": 4,
    "m_iOutputCount": 1,
    "m_iScore": 0
  },
  {
    "m_NNJson": {
      "dLearningRate": 0.1,
      "iHiddenNodes": 6,
      "iInputNodes": 4,
      "iOutputNodes": 1,
      "mBiasHidden": {
        "iCols": 1,
        "iRows": 6,
        "vData": [
          0.999938962981048,
          -0.7265541550950652,
          0.19968260750144973,
          -0.5784783471175268,
          -0.9692983794671468,
          -0.45023957029938655
        ]
      },
      "mBiasOutput": {
        "iCols": 1,
        "iRows": 1,
        "vData": [
          -0.5597399822992646
        ]
      },
      "mHiddenWeights": {
        "iCols": 6,
        "iRows": 1,
        "vData": [
          -0.6485488448744163,
          0.6025269325846125,
          0.10214545121616259,
          0.9222998748741111,
          0.27353740043336283,
          0.4793542283394878
        ]
      },
      "mInputWeights": {
        "iCols": 4,
        "iRows": 6,
        "vData": [
          0.6674092837305825,
          0.8115787224951934,
          0.07541123691518914,
          -0.009186071352275116,
          -0.26419873653370773,
          -0.8096865749076815,
          0.26908169804986715,
          -0.826288644062624,
          -0.36619159520249034,
          0.9410992767113253,
          -0.673390911587878,
          -0.8620563371684927,
          0.131076998199408,
          0.8773155919064912,
          -0.5587023529770806,
          0.40256965849787907,
          -0.6255989257484664,
          0.44584490493484297,
          -0.3903012176885281,
          0.9671620838038271,
          -0.6027100436414685,
          0.44956816309091474,
          -0.28708761864070553,
          -0.6820581682790612
        ]
      }
    },
    "m_iHiddenCount": 6,
    "m_iInputCount": 4,
    "m_iOutputCount": 1,
    "m_iScore": 0
  },
  {
    "m_NNJson": {
      "dLearningRate": 0.1,
      "iHiddenNodes": 6,
      "iInputNodes": 4,
      "iOutputNodes": 1,
      "mBiasHidden": {
        "iCols": 1,
        "iRows": 6,
        "vData": [
          0.999938962981048,
          -0.7265541550950652,
          0.19968260750144973,
          -0.5784783471175268,
          -0.9692983794671468,
          -0.45023957029938655
        ]
      },
      "mBiasOutput": {
        "iCols": 1,
        "iRows": 1,
        "vData": [
          -0.5597399822992646
        ]
      },
      "mHiddenWeights": {
        "iCols": 6,
        "iRows": 1,
        "vData": [
          -0.6485488448744163,
          0.6025269325846125,
          0.10214545121616259,
          0.9222998748741111,
          0.27353740043336283,
          0.4793542283394878
        ]
      },
      "mInputWeights": {
        "iCols": 4,
        "iRows": 6,
        "vData": [
          0.6674092837305825,
          0.8115787224951934,
          0.07541123691518914,
          -0.009186071352275116,
          -0.26419873653370773,
          -0.8096865749076815,
          0.26908169804986715,
          -0.826288644062624,
          -0.36619159520249034,
          0.9410992767113253,
          -0.673390911587878,
          -0.8620563371684927,
          0.131076998199408,
          0.8773155919064912,
          -0.5587023529770806,
          0.40256965849787907,
          -0.6255989257484664,
          0.44584490493484297,
          -0.3903012176885281,
          0.9671620838038271,
          -0.6027100436414685,
          0.44956816309091474,
          -0.28708761864070553,
          -0.6820581682790612
        ]
      }
    },
    "m_iHiddenCount": 6,
    "m_iInputCount": 4,
    "m_iOutputCount": 1,
    "m_iScore": 2
  },
  {
    "m_NNJson": {
      "dLearningRate": 0.1,
      "iHiddenNodes": 6,
      "iInputNodes": 4,
      "iOutputNodes": 1,
      "mBiasHidden": {
        "iCols": 1,
        "iRows": 6,
        "vData": [
          0.5407574694051942,
          -0.7995544297616505,
          0.6200445570238349,
          0.00790429395428327,
          0.37626270332956935,
          0.26041444135868397
        ]
      },
      "mBiasOutput": {
        "iCols": 1,
        "iRows": 1,
        "vData": [
          0.8852504043702505
        ]
      },
      "mHiddenWeights": {
        "iCols": 6,
        "iRows": 1,
        "vData": [
          -0.989257484664449,
          0.15176854762413394,
          -0.41776787621692557,
          0.9720450453199865,
          0.03543198950163284,
          -0.6823633533738211
        ]
      },
      "mInputWeights": {
        "iCols": 4,
        "iRows": 6,
        "vData": [
          0.4618976409192175,
          -0.2829981383709219,
          -0.6115604113895077,
          -0.7263710440382092,
          0.28952909939878535,
          0.11709952085940123,
          0.3398236030152286,
          0.5623645741142003,
          0.2023071993163854,
          0.4210638752403333,
          -0.8356273079622791,
          -0.7106234931485946,
          -0.8120059816278573,
          -0.3451948606830042,
          -0.18338572344126713,
          -0.5049287392803736,
          0.4159367656483657,
          -0.5597399822992646,
          -0.9591051973021638,
          -0.8849452192754905,
          0.5720694601275673,
          -0.76006347849971,
          0.8885464033936583,
          -0.31998657185583057
        ]
      }
    },
    "m_iHiddenCount": 6,
    "m_iInputCount": 4,
    "m_iOutputCount": 1,
    "m_iScore": 0
  },
  {
    "m_NNJson": {
      "dLearningRate": 0.1,
      "iHiddenNodes": 6,
      "iInputNodes": 4,
      "iOutputNodes": 1,
      "mBiasHidden": {
        "iCols": 1,
        "iRows": 6,
        "vData": [
          -0.48326059755241557,
          -0.782158879360332,
          -0.26639606921597947,
          -0.8359324930570391,
          -0.565660573137608,
          -0.5470442823572497
        ]
      },
      "mBiasOutput": {
        "iCols": 1,
        "iRows": 1,
        "vData": [
          0.3649098178044985
        ]
      },
      "mHiddenWeights": {
        "iCols": 6,
        "iRows": 1,
        "vData": [
          0.12216559343241684,
          0.47044282357249667,
          0.3725394451734978,
          -0.7535325174718467,
          -0.3786431470686972,
          0.29459517197180096
        ]
      },
      "mInputWeights": {
        "iCols": 4,
        "iRows": 6,
        "vData": [
          -0.3224890896328624,
          0.07754753257850888,
          -0.9478133487960448,
          -0.2560808130130925,
          -0.597338785973693,
          0.4813074129459518,
          0.3102206488235115,
          0.9409161656544693,
          -0.23795281838435012,
          0.9625843073824274,
          -0.04196295052949617,
          -0.586291085543382,
          0.020172734763634237,
          -0.619312112796411,
          0.457747123630482,
          0.6562395092623676,
          0.056123538926358796,
          0.017853328043458294,
          0.20609149449140896,
          0.7487105929746392,
          0.8174382763145849,
          -0.5341654713583788,
          0.12350840784936068,
          -0.15945921201208535
        ]
      }
    },
    "m_iHiddenCount": 6,
    "m_iInputCount": 4,
    "m_iOutputCount": 1,
    "m_iScore": 0
  },
  {
    "m_NNJson": {
      "dLearningRate": 0.1,
      "iHiddenNodes": 6,
      "iInputNodes": 4,
      "iOutputNodes": 1,
      "mBiasHidden": {
        "iCols": 1,
        "iRows": 6,
        "vData": [
          0.8798181096835231,
          -0.7603686635944701,
          -0.3069246498001038,
          0.1387676625873593,
          -0.8323923459578234,
          0.630726035340434
        ]
      },
      "mBiasOutput": {
        "iCols": 1,
        "iRows": 1,
        "vData": [
          0.6501968443861201
        ]
      },
      "mHiddenWeights": {
        "iCols": 6,
        "iRows": 1,
        "vData": [
          -0.5521713919492173,
          0.6345103305154576,
          0.48667867061372716,
          -0.0021057771538438574,
          -0.6501968443861201,
          -0.629749443037202
        ]
      },
      "mInputWeights": {
        "iCols": 4,
        "iRows": 6,
        "vData": [
          -0.5142063661610767,
          0.9271217993713188,
          0.14749595629749446,
          0.1258278145695364,
          -0.5454573198644979,
          0.12906277657399223,
          -0.23282570879238262,
          -0.06241035187841426,
          0.9639881588183232,
          -0.10403759880367447,
          0.1947386089663381,
          -0.370036927396466,
          0.4813074129459518,
          -0.9977416302987762,
          -0.423383281960509,
          0.3544114505447553,
          0.7795953245643483,
          -0.5536362804040651,
          -0.03445539719840085,
          0.8092593157750176,
          0.19455549790948212,
          -0.07071138645588548,
          -0.8657795953245644,
          -0.9514755699331645
        ]
      }
    },
    "m_iHiddenCount": 6,
    "m_iInputCount": 4,
    "m_iOutputCount": 1,
    "m_iScore": 0
  },
  {
    "m_NNJson": {
      "dLearningRate": 0.1,
      "iHiddenNodes": 6,
      "iInputNodes": 4,
      "iOutputNodes": 1,
      "mBiasHidden": {
        "iCols": 1,
        "iRows": 6,
        "vData": [
          -0.9926755577257607,
          -0.40763573107089446,
          0.9026459547715691,
          0.2830591753898739,
          -0.3119296853541673,
          -0.6046632282479324
        ]
      },
      "mBiasOutput": {
        "iCols": 1,
        "iRows": 1,
        "vData": [
          -0.17807550279244366
        ]
      },
      "mHiddenWeights": {
        "iCols": 6,
        "iRows": 1,
        "vData": [
          0.7520065919980468,
          0.07693716238898896,
          -0.5713980529190954,
          -0.6384166997283853,
          0.695364238410596,
          -0.9938352610858485
        ]
      },
      "mInputWeights": {
        "iCols": 4,
        "iRows": 6,
        "vData": [
          0.8825647755363628,
          0.3105868709372235,
          -0.20291756950590534,
          0.21225623340556043,
          0.7833185827204199,
          -0.7011017181920836,
          -0.9702139347514267,
          -0.8874477370525223,
          0.7126987517929624,
          0.3425702688680685,
          -0.7645802179021577,
          0.989745780816065,
          0.08731345561082793,
          -0.2644428846095157,
          0.9002044740134891,
          -0.7194738608966338,
          0.9100924710837122,
          -0.4711142307809687,
          0.6923123874629964,
          0.5165868099002044,
          0.97827082125309,
          -0.8441114535966063,
          0.836298715170751,
          -0.5490585039826654
        ]
      }
    },
    "m_iHiddenCount": 6,
    "m_iInputCount": 4,
    "m_iOutputCount": 1,
    "m_iScore": 2
  },
  {
    "m_NNJson": {
      "dLearningRate": 0.1,
      "iHiddenNodes": 6,
      "iInputNodes": 4,
      "iOutputNodes": 1,
      "mBiasHidden": {
        "iCols": 1,
        "iRows": 6,
        "vData": [
          0.8502151554918058,
          -0.6281014435254982,
          0.6487319559312723,
          -0.23569444868312628,
          0.16464735862300484,
          0.967467268898587
        ]
      },
      "mBiasOutput": {
        "iCols": 1,
        "iRows": 1,
        "vData": [
          -0.1878414258247627
        ]
      },
      "mHiddenWeights": {
        "iCols": 6,
        "iRows": 1,
        "vData": [
          0.43302713095492407,
          0.8614459669789727,
          0.7652516251106296,
          -0.23679311502426226,
          0.8121890926847133,
          0.024018066957609774
        ]
      },
